{"learner":{"attributes":{"best_iteration":"7","best_score":"0.5103676427958277","scikit_learn":"{\"_estimator_type\": \"classifier\"}"},"feature_names":["Type","Age","Breed1","Gender","Color1","Color2","MaturitySize","FurLength","Vaccinated","Sterilized","Health","Fee","PhotoAmt"],"feature_types":["c","c","c","c","c","c","c","c","c","c","c","c","c"],"gradient_booster":{"model":{"gbtree_model_param":{"num_parallel_tree":"1","num_trees":"18"},"iteration_indptr":[0,1,2,3,4,5,6,7,8,9,10,11,12,13,14,15,16,17,18],"tree_info":[0,0,0,0,0,0,0,0,0,0,0,0,0,0,0,0,0,0],"trees":[{"base_weights":[7.637941E-2,6.1606133E-1,-4.9548176E-1,-1.3382521E-1,7.5925165E-1,2.0364842E-1,-9.8720133E-1,6.2330604E-1,-9.232974E-1,7.879971E-1,-1.3577803E0,5.472968E-1,-2.3480545E-1,-5.567712E-1,-1.5250938E0,6.9225043E-1,-6.397698E-1,-3.7590516E-1,-1.2903703E0,1.1011312E0,6.8370795E-1,6.1539702E-2,-1.5967673E0,6.2638E-1,-1.0015317E0,3.1830195E-1,-6.76797E-1,-6.686571E-2,-1.0236454E0,-1.0621988E0,-1.7304305E0,7.6080024E-1,-3.482986E-1,2.985485E-2,-3.8539422E-1,1.0556044E-1,-7.721233E-1,-7.4551666E-1,-1.4839318E0,3.7899622E-1,9.6546686E-1,7.9708374E-1,3.7850568E-1,-3.877339E-1,-5.9240216E-1,6.855546E-1,-5.0746334E-1,-1.3664695E0,-3.482986E-1,4.6465603E-1,-5.815101E-1,-2.5276944E-1,-1.0061082E0,2.0344028E-1,-5.692378E-1,-3.118336E-1,-1.2430686E0,-2.2921851E-1,-1.2545819E0,-8.517817E-1,-1.8481888E0,3.112056E-1,1.449443E-1,8.1866995E-2,-3.1188923E-1,1.812572E-1,-2.2445562E-1,-3.059636E-1,5.5616044E-2,-4.2781925E-1,-1.4215559E-1,-4.7273335E-1,-2.6896128E-3,2.9852244E-1,-1.7653857E-1,2.4443674E-1,-4.1360095E-1,1.6051827E-1,-2.1311931E-2,6.1539702E-2,-2.3641624E-1,2.6700416E-1,1.1830222E-1,1.8096058E-1,-2.933758E-1,-5.219936E-1,-4.1187882E-2,-2.1541376E-1,9.41628E-2,1.9619684E-1,-1.332954E-2,9.199614E-2,-3.4607255E-1,2.1831234E-1,-1.6909403E-1,-1.8484555E-1,-4.298277E-1,1.1033567E-1,-3.5692528E-1,-3.1767618E-2,-2.529142E-1,8.053687E-2,-1.802555E-1,-4.8600674E-1,-2.6744083E-1,7.947028E-2,-1.7455879E-1,1.02976225E-1,-4.030224E-1,2.4532536E-1,-3.201978E-1,-5.812901E-1,-3.079915E-1],"categories":[4,5,6,7,8,9,10,11,12,13,14,15,16,17,18,19,20,21,22,23,24,25,26,27,29,31,32,33,34,35,36,37,38,39,40,42,43,44,45,46,47,48,49,50,51,54,55,56,67,77,89,92,0,5,20,31,49,55,78,99,107,147,0,1,2,3,4,5,6,7,8,9,10,11,12,13,14,15,16,17,18,19,20,21,22,23,24,25,26,27,28,29,30,31,32,33,99,107,111,126,133,143,0,0,1,2,3,5,6,7,9,10,11,12,13,14,15,17,18,19,20,22,23,24,28,29,31,32,34,35,36,37,38,39,40,41,42,44,45,46,47,49,50,51,54,55,56,57,58,59,60,61,62,63,64,65,66,67,68,69,71,72,74,75,76,77,78,80,81,82,83,84,85,86,87,88,89,90,91,92,94,95,96,97,99,100,101,102,103,104,105,106,107,108,109,112,113,117,118,119,120,121,122,124,125,127,128,129,130,131,134,137,138,139,140,141,142,143,144,145,146,147,148,149,150,151,152,153,154,155,157,158,9,11,12,13,14,15,16,18,21,24,36,47,67,77,92,26,38,0,1,2,4,0,1,2,3,4,6,13,15,16,17,18,19,20,21,22,23,24,25,26,27,28,29,30,0,1,2,3,4,5,6,7,8,9,10,11,12,13,14,15,16,17,18,19,20,21,22,23,24,25,26,27,28,29,30,31,32,33,34,35,36,37,38,39,40,41,42,43,44,45,46,47,48,49,50,51,52,53,55,56,57,58,59,60,61,62,63,64,65,66,67,68,69,70,71,72,73,74,75,76,77,78,79,80,81,82,83,84,85,86,87,88,89,90,91,92,93,94,95,96,97,98,99,100,101,102,103,104,105,106,107,108,109,110,111,112,113,114,115,116,117,118,119,120,121,122,123,124,125,126,127,128,129,130,131,132,133,134,135,136,137,138,139,140,141,142,143,144,145,146,147,148,149,150,151,152,153,154,155,156,157,158,159,160,161,162,163,164,165,0,11,0,1,2,3,8,9,10,11,12,13,14,16,19,21,22,23,24,25,26,27,28,29,30,31,32,33,34,35,36,37,38,39,40,41,42,43,44,45,46,48,49,50,51,52,53,54,55,56,57,58,59,60,61,62,63,64,65,66,67,68,69,70,71,72,73,74,75,76,77,78,79,80,81,82,83,84,85,86,87,88,89,90,91,92,93,94,95,96,97,98,99,100,101,102,5,99,107,0,1,2,3,8,10,0,30,0,1,2,3,0,1,0,1,2,3,4,5,6,13,15,16,17,18,19,20,21,22,23,24,25,26,27,28,29,30,0,3,4,5,6,7,8,9,10,11,12,13,14,15,16,17,18,19,20,21,22,23,24,25,26,27,28,29,30,31,32,33,34,35,36,37,38,39,40,41,42,43,44,45,46,47,48,49,50,51,52,53,54,55,56,58,59,60,61,62,63,64,65,66,67,68,69,70,71,72,73,74,75,76,77,78,79,80,81,82,83,84,85,86,87,88,89,90,91,92,93,94,95,96,97,98,99,100,101,102,2,3,11,14,16,21,29,92,0,1,2,3,4,5,6,7,8,9,10,11,12,13,14,15,16,17,18,19,20,21,22,23,24,25,26,27,28,29,30,31,32,33,34,35,36,37,38,39,40,41,42,43,132,1,2,3,4,5,6,7,8,9,15,26,38,1,0,1,2,3,6,7,9,10,11,12,13,14,15,16,18,19,20,21,22,23,24,25,26,27,28,29,30,31,32,33,34,35,36,37,38,0,1,2,3,4,9,0,1,3,4,0,1,3,5,6,0,1,2,7,9,10,11,12,13,14,15,16,17,18,19,20,21,22,23,24,25,26,27,28,29,30,1,0,1,4,5,6,7,8,9,10,11,12,13,14,15,16,17,18,19,20,21,22,23,24,25,26,27,28,57,0,1,2,3,30,57,1,1,31,21,0,1,5,7,8,9,10,11,12,13,1,0,1,5,7,8,11,12,13,14,15,16,17,18,19,20,21,22,23,24,25,26,27,28,29,30,0,1,2,3,4,5,6,7,8,9,10,11,12,13,14,15,16,17,18,19,20,21,22,23,24,25,26,27,28,29,30,31,0,0,1,2,3,4,5,6,7,8,9,10,11,12,13,14,15,16,17,2,1,2,3,4,0,1,2,3,4,5,6,7,8,9,10,11,12,13,14,15,16,17,18,19,20,21,22,23,24,25,26,27,28,29,30,31,32,33,34,35,36,37,38,39,40,41,42,43,44,45,46,47,48,49,50,51,52,53,54,55,56,57,58,59,60,61,62,63,64,65,66,67,68,69,70,71,72,73,74,75,76,77,78,79,80,81,82,83,84,85,86,87,88,89,90,91,92,93,94,95,96,97,98,99,100,101,102,103,104,105,106,107,108,109,110,111,112,113,114,115,116,117,148,152,0,1,5,6,15,26,31,0,1,2,3,4,6,0,1,2,3,4,5,6,7,9,12,14,15,0,0,1,2,3,4,6,8,9,10,11,12,13,14,15,16,0,1,3,4,5,6,0,1,2,3,4,5,6,7,8,9,10,11,12,13,14,15,16,17,18,19,20,21,22,23,24,25,26,27,28,29,30,31,32,33,34,35,36,2],"categories_nodes":[0,1,2,3,4,5,6,7,8,9,10,11,12,13,14,15,16,17,18,19,20,22,23,24,25,26,27,28,29,30,31,32,35,36,37,38,40,41,42,43,45,46,47,48,49,50,51,52,53,54,55,56,57,58,59,60],"categories_segments":[0,52,53,62,102,103,232,247,249,253,276,441,443,537,540,546,548,552,553,554,578,678,680,686,731,743,744,779,785,789,794,820,821,849,850,855,856,858,859,869,870,895,927,928,946,947,951,1071,1075,1078,1084,1096,1097,1112,1118,1155],"categories_sizes":[52,1,9,40,1,129,15,2,4,23,165,2,94,3,6,2,4,1,1,24,100,2,6,45,12,1,35,6,4,5,26,1,28,1,5,1,2,1,10,1,25,32,1,18,1,4,120,4,3,6,12,1,15,6,37,1],"default_left":[1,1,1,1,1,0,1,1,1,1,0,1,0,1,1,1,1,1,1,1,0,0,1,1,1,1,1,1,1,1,1,1,1,0,0,1,1,1,1,0,1,1,1,1,0,1,1,1,1,1,1,0,1,1,1,1,1,1,1,1,1,0,0,0,0,0,0,0,0,0,0,0,0,0,0,0,0,0,0,0,0,0,0,0,0,0,0,0,0,0,0,0,0,0,0,0,0,0,0,0,0,0,0,0,0,0,0,0,0,0,0,0,0],"id":0,"left_children":[1,3,5,7,9,11,13,15,17,19,21,23,25,27,29,31,33,35,37,39,41,-1,43,45,47,49,51,53,55,57,59,61,63,-1,-1,65,67,69,71,-1,73,75,77,79,-1,81,83,85,87,89,91,93,95,97,99,101,103,105,107,109,111,-1,-1,-1,-1,-1,-1,-1,-1,-1,-1,-1,-1,-1,-1,-1,-1,-1,-1,-1,-1,-1,-1,-1,-1,-1,-1,-1,-1,-1,-1,-1,-1,-1,-1,-1,-1,-1,-1,-1,-1,-1,-1,-1,-1,-1,-1,-1,-1,-1,-1,-1,-1],"loss_changes":[4.33734E2,7.773178E1,2.3480171E2,7.037105E1,3.8021423E1,4.2710724E1,9.194876E1,5.6853275E0,1.1081776E1,1.883142E1,3.503004E0,2.0070202E1,3.0743874E1,5.1216385E1,1.5041748E1,4.371109E0,1.8611468E0,4.7587523E0,2.4844131E0,2.041031E0,1.5356323E1,0E0,2.6555443E0,1.052206E1,1.454072E0,7.6641884E0,9.482611E0,1.5118596E1,1.7533295E1,8.872414E0,1.0989899E1,3.669918E0,2.1062403E0,0E0,0E0,5.5384293E0,3.40829E0,1.3458285E0,3.2524414E0,0E0,4.4933395E0,1.3798798E1,8.798128E0,8.8017726E-1,0E0,8.25531E0,4.8202205E0,1.9887724E0,1.2644436E0,4.7373476E0,4.5702586E0,1.0108282E1,5.591385E0,1.7053215E1,4.84758E0,4.9194317E0,1.0135376E1,2.2360868E0,7.019966E0,6.7046013E0,5.8164673E0,0E0,0E0,0E0,0E0,0E0,0E0,0E0,0E0,0E0,0E0,0E0,0E0,0E0,0E0,0E0,0E0,0E0,0E0,0E0,0E0,0E0,0E0,0E0,0E0,0E0,0E0,0E0,0E0,0E0,0E0,0E0,0E0,0E0,0E0,0E0,0E0,0E0,0E0,0E0,0E0,0E0,0E0,0E0,0E0,0E0,0E0,0E0,0E0,0E0,0E0,0E0,0E0],"parents":[2147483647,0,0,1,1,2,2,3,3,4,4,5,5,6,6,7,7,8,8,9,9,10,10,11,11,12,12,13,13,14,14,15,15,16,16,17,17,18,18,19,19,20,20,22,22,23,23,24,24,25,25,26,26,27,27,28,28,29,29,30,30,31,31,32,32,35,35,36,36,37,37,38,38,40,40,41,41,42,42,43,43,45,45,46,46,47,47,48,48,49,49,50,50,51,51,52,52,53,53,54,54,55,55,56,56,57,57,58,58,59,59,60,60],"right_children":[2,4,6,8,10,12,14,16,18,20,22,24,26,28,30,32,34,36,38,40,42,-1,44,46,48,50,52,54,56,58,60,62,64,-1,-1,66,68,70,72,-1,74,76,78,80,-1,82,84,86,88,90,92,94,96,98,100,102,104,106,108,110,112,-1,-1,-1,-1,-1,-1,-1,-1,-1,-1,-1,-1,-1,-1,-1,-1,-1,-1,-1,-1,-1,-1,-1,-1,-1,-1,-1,-1,-1,-1,-1,-1,-1,-1,-1,-1,-1,-1,-1,-1,-1,-1,-1,-1,-1,-1,-1,-1,-1,-1,-1,-1],"split_conditions":[NaN,NaN,NaN,NaN,NaN,NaN,NaN,NaN,NaN,NaN,NaN,NaN,NaN,NaN,NaN,NaN,NaN,NaN,NaN,NaN,NaN,6.1539702E-2,NaN,NaN,NaN,NaN,NaN,NaN,NaN,NaN,NaN,NaN,NaN,2.985485E-2,-3.8539422E-1,NaN,NaN,NaN,NaN,3.7899622E-1,NaN,NaN,NaN,NaN,-5.9240216E-1,NaN,NaN,NaN,NaN,NaN,NaN,NaN,NaN,NaN,NaN,NaN,NaN,NaN,NaN,NaN,NaN,3.112056E-1,1.449443E-1,8.1866995E-2,-3.1188923E-1,1.812572E-1,-2.2445562E-1,-3.059636E-1,5.5616044E-2,-4.2781925E-1,-1.4215559E-1,-4.7273335E-1,-2.6896128E-3,2.9852244E-1,-1.7653857E-1,2.4443674E-1,-4.1360095E-1,1.6051827E-1,-2.1311931E-2,6.1539702E-2,-2.3641624E-1,2.6700416E-1,1.1830222E-1,1.8096058E-1,-2.933758E-1,-5.219936E-1,-4.1187882E-2,-2.1541376E-1,9.41628E-2,1.9619684E-1,-1.332954E-2,9.199614E-2,-3.4607255E-1,2.1831234E-1,-1.6909403E-1,-1.8484555E-1,-4.298277E-1,1.1033567E-1,-3.5692528E-1,-3.1767618E-2,-2.529142E-1,8.053687E-2,-1.802555E-1,-4.8600674E-1,-2.6744083E-1,7.947028E-2,-1.7455879E-1,1.02976225E-1,-4.030224E-1,2.4532536E-1,-3.201978E-1,-5.812901E-1,-3.079915E-1],"split_indices":[1,9,2,2,12,2,1,11,12,12,2,12,1,2,12,1,1,3,9,12,1,0,1,1,2,11,7,1,12,4,4,12,7,0,0,1,8,1,10,0,11,11,12,6,0,12,11,4,1,7,5,2,12,11,5,12,9,12,5,1,6,0,0,0,0,0,0,0,0,0,0,0,0,0,0,0,0,0,0,0,0,0,0,0,0,0,0,0,0,0,0,0,0,0,0,0,0,0,0,0,0,0,0,0,0,0,0,0,0,0,0,0,0],"split_type":[1,1,1,1,1,1,1,1,1,1,1,1,1,1,1,1,1,1,1,1,1,0,1,1,1,1,1,1,1,1,1,1,1,0,0,1,1,1,1,0,1,1,1,1,0,1,1,1,1,1,1,1,1,1,1,1,1,1,1,1,1,0,0,0,0,0,0,0,0,0,0,0,0,0,0,0,0,0,0,0,0,0,0,0,0,0,0,0,0,0,0,0,0,0,0,0,0,0,0,0,0,0,0,0,0,0,0,0,0,0,0,0,0],"sum_hessian":[1.4033949E3,7.2197186E2,6.8142303E2,1.157669E2,6.0620496E2,2.816116E2,3.9981143E2,5.9201286E1,5.6565613E1,5.987034E2,7.5015326E0,1.5773492E2,1.2387666E2,2.2322128E2,1.7659013E2,5.6565613E1,2.6356735E0,2.3518318E1,3.304729E1,1.4719223E2,4.5151117E2,1.0137206E0,6.487812E0,1.5063889E2,7.0960445E0,5.51464E1,6.8730255E1,1.0948183E2,1.13739456E2,5.6160122E1,1.2043001E2,5.3321705E1,3.243906E0,1.621953E0,1.0137206E0,1.0948183E1,1.2570136E1,9.934463E0,2.3112831E1,6.325617E1,8.3936066E1,3.2804E2,1.23471176E2,2.0274413E0,4.460371E0,1.4354285E2,7.0960445E0,3.8521385E0,3.243906E0,4.7847614E1,7.2987885E0,3.0817108E1,3.791315E1,7.156868E1,3.791315E1,2.7370457E1,8.6368996E1,1.0948183E1,4.521194E1,1.520581E1,1.05224205E2,2.5343016E1,2.797869E1,2.0274413E0,1.2164648E0,7.0960445E0,3.8521385E0,9.934463E0,2.6356735E0,1.621953E0,8.31251E0,2.169362E1,1.4192089E0,8.2719604E1,1.2164648E0,3.2601254E2,2.0274413E0,9.14376E1,3.2033573E1,1.0137206E0,1.0137206E0,8.312509E1,6.041775E1,2.0274413E0,5.068603E0,2.6356735E0,1.2164648E0,2.0274413E0,1.2164648E0,3.4669247E1,1.3178369E1,3.041162E0,4.2576265E0,7.0960445E0,2.3721064E1,2.1085388E1,1.6827763E1,6.467538E1,6.8933E0,1.4597577E1,2.3315575E1,9.123486E0,1.8246971E1,3.9940594E1,4.6428406E1,4.663115E0,6.285068E0,2.2301855E0,4.2981754E1,1.4192089E0,1.37866E1,9.3667786E1,1.1556416E1],"tree_param":{"num_deleted":"0","num_feature":"13","num_nodes":"113","size_leaf_vector":"1"}},{"base_weights":[6.926575E-2,5.1591754E-1,-2.924182E-1,-3.6733184E-2,6.0696536E-1,4.1092065E-1,-5.226248E-1,5.518793E-1,-5.200099E-1,6.318758E-1,-8.972949E-1,4.7363067E-1,-6.570278E-1,-2.8640175E-1,-8.151084E-1,6.202496E-1,-2.4147555E-1,-2.4743891E-1,-1.0595678E0,9.328824E-1,5.347337E-1,-3.2654324E-1,-1.3998231E0,5.3517485E-1,-2.4708892E-1,-5.6652546E-2,-8.886757E-1,-9.83681E-3,-6.2625307E-1,-8.975516E-1,-2.1978879E-1,6.7867434E-1,-2.3608954E-1,-1.5201849E0,-3.66544E-2,-4.0551193E-2,-3.9491785E-1,1.0946677E0,7.500779E-1,5.577131E-1,-6.597808E-1,1.6757225E-1,-2.8540114E-1,-2.9856302E-2,-5.413727E-1,7.1023506E-1,3.1492552E-1,5.752151E-1,-5.5255365E-1,-1.488462E-1,1.4387475E-1,-4.7150898E-1,-2.124029E-1,2.9984477E-1,-2.754603E-1,-5.367469E-1,-1.7221068E0,-8.375064E-1,-1.694649E0,3.5014692E-1,-5.143013E-1,1.4569741E-1,3.315583E-1,-6.7164354E-2,-5.4838103E-1,1.0175074E-1,-1.4031196E-1,8.2927994E-2,-1.2655324E-1,3.318792E-1,8.3384424E-2,5.6009304E-2,2.6425248E-1,1.9753365E-1,8.646641E-2,2.0695005E-2,-3.3525458E-1,1.5273473E-1,-6.37418E-2,2.2510257E-1,-7.6994345E-2,1.5830018E-1,-1.016032E-1,-3.958168E-2,2.7064627E-1,3.8502257E-2,-3.9477062E-1,-2.183956E-1,2.3261376E-1,1.8410179E-1,-5.4517366E-2,-4.6503045E-2,-3.4179443E-1,-1.4034231E-1,-5.905932E-1,-3.4800386E-1,-6.6522163E-1,-1.9562617E-1,-3.1503886E-1,-1.8958361E-1,-5.569655E-1,2.2778916E-1,-1.9552457E-1,9.5187314E-2,-2.2378911E-1],"categories":[0,4,5,6,7,8,9,10,11,12,13,14,15,16,17,18,19,21,22,23,24,25,26,27,29,30,31,32,33,34,35,36,37,38,39,40,41,42,43,44,45,46,47,48,49,50,51,52,54,55,56,57,58,59,60,61,62,63,64,65,66,67,68,69,70,71,72,73,74,75,76,77,78,79,80,81,82,83,84,85,87,88,89,90,91,92,93,94,95,96,97,98,99,100,101,102,0,0,1,2,3,4,5,6,7,8,9,10,11,12,13,14,15,17,18,19,20,22,23,24,27,28,29,31,32,34,36,37,38,39,41,42,44,45,46,47,49,50,51,54,55,56,57,58,60,61,62,63,64,65,66,67,68,69,71,72,74,75,76,77,78,80,81,82,83,84,85,86,87,88,90,91,92,95,96,97,99,100,101,102,103,104,105,106,107,108,109,112,113,117,118,119,120,121,124,125,127,128,129,130,131,134,137,138,139,140,141,142,143,144,145,146,147,148,152,156,0,1,2,3,4,5,6,7,8,9,10,11,12,13,14,15,16,17,18,19,20,21,22,23,24,25,26,27,28,29,30,31,32,33,99,107,133,0,0,11,9,11,12,13,14,16,19,21,24,29,36,47,57,67,77,92,26,0,1,0,1,2,3,4,6,15,16,17,18,19,20,21,22,23,24,25,26,27,28,29,30,2,1,2,3,4,5,6,7,8,9,26,47,0,1,2,3,4,5,6,7,8,9,10,11,12,13,14,15,16,17,18,19,20,21,22,23,24,25,26,27,28,29,30,31,32,33,34,35,36,37,38,39,40,41,42,43,44,45,46,47,48,49,50,51,52,53,54,55,56,57,58,59,60,61,62,63,64,65,66,67,68,69,70,71,72,73,74,75,76,77,78,79,80,81,82,83,84,85,86,87,88,89,90,91,92,93,94,95,96,97,98,99,100,101,102,103,104,105,106,107,108,109,110,111,112,113,114,132,5,83,99,107,2,0,0,1,0,4,2,3,4,8,9,10,11,12,13,14,16,17,21,0,1,0,0,1,2,3,4,5,6,7,8,9,10,11,12,13,14,15,16,17,18,19,20,21,22,23,24,25,26,27,28,29,30,31,32,33,34,35,36,37,38,39,40,41,42,43,44,45,46,47,48,49,50,51,53,54,55,56,57,58,59,60,61,62,63,64,65,66,67,68,69,71,72,74,75,76,77,78,80,81,82,83,84,85,86,87,88,89,90,91,92,94,95,96,97,99,100,101,102,103,104,105,106,107,108,109,112,113,117,118,119,120,121,122,124,125,127,128,129,130,131,133,134,137,138,139,140,141,142,143,144,145,146,147,148,149,150,151,152,153,154,155,156,157,158,159,160,161,162,163,164,165,1,2,3,5,0,1,2,3,4,5,6,7,8,9,10,11,12,13,14,15,16,17,18,19,20,21,22,23,0,1,2,3,4,5,6,7,8,9,10,11,12,13,14,15,16,17,18,19,20,21,22,23,24,25,26,27,28,29,30,31,32,33,34,35,36,37,38,39,40,41,42,43,44,45,46,47,48,49,50,51,52,53,54,55,56,57,58,59,132,0,1,3,4,10,12,15,26,31,1,7,15,42,46,0,2,3,5,6,7,0,1,1,3,4,6,0,1,2,3,4,5,1,0,3,4,5,6,7,8,9,10,11,12,13,14,15,16,17,18,19,20,21,22,23,24,25,26,27,28,29,30,31,32,33,34,35,36,37,38,39,40,41,42,43,44,45,46,47,48,49,50,51,52,53,54,55,56,57,58,59,60,61,62,63,64,65,66,67,68,69,70,71,72,73,74,75,76,77,78,79,80,81,82,83,84,85,87,88,89,90,91,92,93,94,95,96,97,98,99,100,101,102,0,1,2,3,5,0,1,3,0,1,2,3,10,11,29,92,0,1,2,3,6,7,11,13,15,16,17,19,20,21,36,0,0,5,0,1,2,3,4,5,6,7,8,9,10,11,12,0,1,2,3,6,7,8,9,11,12,13,14,16,18,19,20,21,22,23,24,25,26,27,28,29,30,31,32,33,34,35,36,37,38,39,40,41,42,43,44,45,46,47,48,49,50,51,52,53,54,55,56,57,58,59,60,61,62,63,64,65,66,67,68,69,70,71,72,73,74,75,76,77,78,79,80,81,82,83,84,85,86,87,88,89,90,91,92,93,94,95,96,97,98,99,100,101,102,1,0,26,0,1,3,14,0,1,2,3,4,5,55,99,148,0,1,2,3,4,5,6,7,8,9,10,11,12,13,14,15,16,17,18,19,20,21,22,23,24,25,26,27,28,29,30,31,32,33,34,35,36,37,38,39,40,41,42,43,44,45,46,47,48,49,50,51,52,53,54,56,57,58,59,60,61,62,63,64,65,66,67,68,69,70,71,72,73,74,75,76,77,78,79,80,81,82,84,85,86,87,88,89,90,91,92,93,94,95,96,97,98,100,101,102,103,104,105,106,107,108,109,110,111,112,113,114,115,116,117,118,119,120,121,122,123,124,125,126,127,128,129,130,131,132,133,134,135,136,137,138,139,140,141,142,143,144,145,146,0,1,3,6],"categories_nodes":[0,1,2,3,4,5,6,7,8,9,10,11,12,13,14,15,17,18,19,20,21,22,23,24,25,26,27,28,29,30,31,33,34,35,37,38,39,40,41,45,46,47,48,52,53,54,55,56,57,58,59,60],"categories_segments":[0,96,97,216,253,254,256,272,273,275,297,298,309,425,429,430,431,432,433,435,448,450,451,601,605,629,690,696,699,704,710,711,712,716,717,722,723,823,828,831,839,854,855,857,870,968,969,970,971,975,984,1128],"categories_sizes":[96,1,119,37,1,2,16,1,2,22,1,11,116,4,1,1,1,1,2,13,2,1,150,4,24,61,6,3,5,6,1,1,4,1,5,1,100,5,3,8,15,1,2,13,98,1,1,1,4,9,144,4],"default_left":[0,1,0,1,1,1,1,1,1,1,1,1,0,1,1,1,0,1,1,1,1,1,1,0,1,1,1,1,1,1,1,1,0,1,1,1,0,1,1,0,1,1,0,0,0,1,1,1,1,0,0,0,1,0,1,1,1,1,1,0,1,0,0,0,0,0,0,0,0,0,0,0,0,0,0,0,0,0,0,0,0,0,0,0,0,0,0,0,0,0,0,0,0,0,0,0,0,0,0,0,0,0,0,0,0],"id":1,"left_children":[1,3,5,7,9,11,13,15,17,19,21,23,25,27,29,31,-1,33,35,37,39,41,43,45,47,49,51,53,55,57,59,61,-1,63,65,67,-1,69,71,73,75,77,-1,-1,-1,79,81,83,85,-1,-1,-1,87,89,91,93,95,97,99,101,103,-1,-1,-1,-1,-1,-1,-1,-1,-1,-1,-1,-1,-1,-1,-1,-1,-1,-1,-1,-1,-1,-1,-1,-1,-1,-1,-1,-1,-1,-1,-1,-1,-1,-1,-1,-1,-1,-1,-1,-1,-1,-1,-1,-1],"loss_changes":[2.2187668E2,3.0941757E1,1.23112206E2,2.52795E1,2.0338089E1,1.2883848E1,3.9307556E1,4.2188835E0,6.9090242E0,1.4694977E1,2.1266565E0,8.023247E0,1.4560065E0,2.9896265E1,1.2325928E1,3.719036E0,0E0,8.985254E0,4.1498756E0,2.8886871E0,1.1215424E1,1.8642038E0,2.181511E0,6.108177E0,4.0053415E0,1.2003658E0,3.2448082E0,1.4594532E1,1.3074776E1,9.292053E0,5.612118E0,2.5695E0,0E0,1.4911261E0,5.008385E0,6.3205856E-1,0E0,3.0213165E-1,4.408146E0,1.0350281E1,2.7180097E0,6.1878186E-1,0E0,0E0,0E0,3.7098045E0,1.0540728E1,1.1516124E0,5.9975615E0,0E0,0E0,0E0,3.1359608E0,1.2493996E1,9.758802E0,1.2247402E1,3.0207634E-1,7.59816E0,1.3560448E0,5.2583866E0,4.42514E0,0E0,0E0,0E0,0E0,0E0,0E0,0E0,0E0,0E0,0E0,0E0,0E0,0E0,0E0,0E0,0E0,0E0,0E0,0E0,0E0,0E0,0E0,0E0,0E0,0E0,0E0,0E0,0E0,0E0,0E0,0E0,0E0,0E0,0E0,0E0,0E0,0E0,0E0,0E0,0E0,0E0,0E0,0E0,0E0],"parents":[2147483647,0,0,1,1,2,2,3,3,4,4,5,5,6,6,7,7,8,8,9,9,10,10,11,11,12,12,13,13,14,14,15,15,17,17,18,18,19,19,20,20,21,21,22,22,23,23,24,24,25,25,26,26,27,27,28,28,29,29,30,30,31,31,33,33,34,34,35,35,37,37,38,38,39,39,40,40,41,41,45,45,46,46,47,47,48,48,52,52,53,53,54,54,55,55,56,56,57,57,58,58,59,59,60,60],"right_children":[2,4,6,8,10,12,14,16,18,20,22,24,26,28,30,32,-1,34,36,38,40,42,44,46,48,50,52,54,56,58,60,62,-1,64,66,68,-1,70,72,74,76,78,-1,-1,-1,80,82,84,86,-1,-1,-1,88,90,92,94,96,98,100,102,104,-1,-1,-1,-1,-1,-1,-1,-1,-1,-1,-1,-1,-1,-1,-1,-1,-1,-1,-1,-1,-1,-1,-1,-1,-1,-1,-1,-1,-1,-1,-1,-1,-1,-1,-1,-1,-1,-1,-1,-1,-1,-1,-1,-1],"split_conditions":[NaN,NaN,NaN,NaN,NaN,NaN,NaN,NaN,NaN,NaN,NaN,NaN,NaN,NaN,NaN,NaN,-2.4147555E-1,NaN,NaN,NaN,NaN,NaN,NaN,NaN,NaN,NaN,NaN,NaN,NaN,NaN,NaN,NaN,-2.3608954E-1,NaN,NaN,NaN,-3.9491785E-1,NaN,NaN,NaN,NaN,NaN,-2.8540114E-1,-2.9856302E-2,-5.413727E-1,NaN,NaN,NaN,NaN,-1.488462E-1,1.4387475E-1,-4.7150898E-1,NaN,NaN,NaN,NaN,NaN,NaN,NaN,NaN,NaN,1.4569741E-1,3.315583E-1,-6.7164354E-2,-5.4838103E-1,1.0175074E-1,-1.4031196E-1,8.2927994E-2,-1.2655324E-1,3.318792E-1,8.3384424E-2,5.6009304E-2,2.6425248E-1,1.9753365E-1,8.646641E-2,2.0695005E-2,-3.3525458E-1,1.5273473E-1,-6.37418E-2,2.2510257E-1,-7.6994345E-2,1.5830018E-1,-1.016032E-1,-3.958168E-2,2.7064627E-1,3.8502257E-2,-3.9477062E-1,-2.183956E-1,2.3261376E-1,1.8410179E-1,-5.4517366E-2,-4.6503045E-2,-3.4179443E-1,-1.4034231E-1,-5.905932E-1,-3.4800386E-1,-6.6522163E-1,-1.9562617E-1,-3.1503886E-1,-1.8958361E-1,-5.569655E-1,2.2778916E-1,-1.9552457E-1,9.5187314E-2,-2.2378911E-1],"split_indices":[1,9,2,2,12,12,1,11,12,12,7,11,2,2,6,12,0,11,9,5,11,5,3,2,12,1,2,12,11,11,12,8,0,9,5,4,0,11,6,1,5,1,0,0,0,1,1,0,4,0,0,0,1,1,9,12,11,12,2,2,4,0,0,0,0,0,0,0,0,0,0,0,0,0,0,0,0,0,0,0,0,0,0,0,0,0,0,0,0,0,0,0,0,0,0,0,0,0,0,0,0,0,0,0,0],"split_type":[1,1,1,1,1,1,1,1,1,1,1,1,1,1,1,1,0,1,1,1,1,1,1,1,1,1,1,1,1,1,1,1,0,1,1,1,0,1,1,1,1,1,0,0,0,1,1,1,1,0,0,0,1,1,1,1,1,1,1,1,1,0,0,0,0,0,0,0,0,0,0,0,0,0,0,0,0,0,0,0,0,0,0,0,0,0,0,0,0,0,0,0,0,0,0,0,0,0,0,0,0,0,0,0,0],"sum_hessian":[1.3715177E3,6.1348486E2,7.5803284E2,8.685868E1,5.2662616E2,1.8673265E2,5.713002E2,3.909749E1,4.7761192E1,5.1861786E2,8.008333E0,1.7690147E2,9.831166E0,3.1714154E2,2.5415865E2,3.773866E1,1.3588301E0,3.2700386E1,1.5060807E1,1.2443567E2,3.941822E2,4.5221057E0,3.4862278E0,1.6322104E2,1.3680438E1,3.083652E0,6.747514E0,1.7541826E2,1.417233E2,2.2279681E2,3.136183E1,3.673136E1,1.0072944E0,3.7635453E0,2.893684E1,3.264799E0,1.1796008E1,6.336677E1,6.1068897E1,3.872653E2,6.91689E0,2.9337547E0,1.5883512E0,1.1233264E0,2.3629014E0,8.970018E1,7.352086E1,3.4662614E0,1.0214176E1,1.735759E0,1.3478931E0,2.6982665E0,4.0492473E0,8.0932686E1,9.4485565E1,1.3239911E2,9.324176E0,2.0909631E2,1.3700495E1,1.0620436E1,2.0741394E1,2.6760075E1,9.971289E0,1.0534986E0,2.7100465E0,1.5572621E1,1.3364219E1,1.9329338E0,1.3318654E0,6.213008E1,1.2366879E0,1.1961579E1,4.9107315E1,2.808457E2,1.064196E2,2.9960842E0,3.920806E0,1.3662744E0,1.5674803E0,8.63426E1,3.357581E0,5.5612263E1,1.7908598E1,1.2844653E0,2.181796E0,5.8383408E0,4.3758354E0,2.8333585E0,1.2158887E0,4.8834217E1,3.2098473E1,8.39584E1,1.05271635E1,1.27583275E2,4.8158417E0,5.933049E0,3.3911269E0,1.1386583E2,9.523049E1,2.4595602E0,1.1240934E1,7.7128363E0,2.9075992E0,4.4386106E0,1.6302784E1],"tree_param":{"num_deleted":"0","num_feature":"13","num_nodes":"105","size_leaf_vector":"1"}},{"base_weights":[5.576653E-2,4.0758973E-1,-2.0439264E-1,5.3659254E-1,5.483952E-2,1.3961643E-1,-4.4672328E-1,7.376618E-1,3.6413264E-1,-6.650334E-1,2.0577905E-1,2.642818E-1,-2.138514E-1,-1.721561E-1,-5.9279454E-1,1.0407851E0,6.2751746E-1,4.4593614E-1,-1.8550527E-1,-4.678284E-1,-5.3010434E-1,2.7209175E-1,-6.482533E-1,3.1989837E-1,-6.7174524E-1,4.9101263E-1,-5.280931E-1,2.8482008E-1,-3.9183295E-1,-5.2113605E-1,-1.2537405E0,3.1678155E-1,8.126863E-2,6.521449E-1,-2.039686E-1,8.4436315E-1,3.000332E-1,8.9890075E-1,-4.1233683E-1,4.574877E-1,-6.7033464E-1,3.2964402E-1,2.1017031E-1,1.07380256E-1,-8.927169E-1,6.810005E-1,2.0967327E-1,3.9716735E-2,-7.831293E-1,7.6011807E-1,-3.805819E-1,-8.2649726E-1,-3.8391568E-2,-2.5523994E-3,5.9477335E-1,-2.71216E-1,-9.015027E-1,-4.7540146E-1,-4.35535E-1,4.6033308E-1,-1.4215891E0,2.3131557E-1,1.2017739E-1,3.542945E-2,2.7987942E-1,1.1507686E-1,-1.3336834E-1,2.988576E-1,7.345777E-2,6.991497E-2,-2.6323557E-1,2.645503E-1,2.131248E-2,-3.289171E-1,-9.078888E-2,7.9683036E-2,-1.677326E-1,2.2997355E-1,-1.7685936E-1,-8.141217E-2,-3.1057572E-1,2.683736E-1,1.6188315E-1,3.8753994E-2,1.9386818E-1,-2.663233E-1,-3.2201514E-2,2.5024688E-1,-9.2173845E-2,1.2723501E-1,-2.834117E-1,-1.2143258E-1,-3.8456255E-1,1.694317E-1,-1.9533028E-1,-1.4228095E-1,1.0534641E-1,2.874601E-1,9.390963E-2,7.6062925E-2,-1.1822693E-1,-3.2726198E-1,8.857493E-2,-9.978114E-2,-2.0869735E-1,2.3547022E-1,-2.3229674E-2,-3.2621875E-1,-5.534515E-1],"categories":[4,5,6,7,8,9,10,11,12,13,14,15,16,17,18,19,20,21,22,23,24,25,26,27,29,30,31,32,33,34,35,36,37,38,39,40,41,42,43,44,45,46,47,48,49,50,51,52,54,55,56,57,58,59,60,61,62,63,64,65,66,67,68,69,70,71,72,73,74,75,76,77,78,79,80,81,82,83,84,85,86,87,88,89,90,91,92,93,94,95,96,97,98,99,100,101,102,0,1,15,17,18,19,20,21,22,23,24,25,26,27,28,29,30,5,31,49,55,78,99,107,0,2,3,4,5,6,7,8,9,10,11,12,13,14,15,16,17,18,19,21,22,23,24,25,26,27,28,29,30,31,32,33,34,35,36,37,38,39,40,41,42,43,45,46,47,48,49,50,51,56,57,58,59,60,61,62,63,64,65,66,67,68,69,71,72,74,75,76,77,78,79,80,81,82,83,84,85,86,87,88,90,91,92,93,94,95,96,97,98,99,100,101,102,103,104,105,106,107,108,109,110,112,113,114,115,116,117,118,119,120,121,124,125,126,127,128,129,130,131,132,134,135,136,137,138,139,140,141,142,144,145,146,149,150,151,152,153,154,155,156,157,158,159,160,161,162,163,165,0,0,1,2,3,8,9,11,13,14,16,19,21,22,23,25,26,27,28,31,33,36,42,77,89,92,0,1,2,3,10,12,14,0,1,2,3,4,5,6,7,8,9,10,11,12,13,14,15,16,17,18,19,21,22,23,24,25,26,27,28,29,30,31,32,33,34,35,36,37,38,39,40,41,42,43,44,45,46,47,48,49,50,51,54,55,56,57,58,59,60,61,62,63,64,65,66,67,68,69,71,72,74,75,76,77,78,79,80,81,82,83,84,85,86,87,88,90,91,92,93,94,95,96,97,98,99,100,101,102,103,104,105,106,107,108,109,110,112,113,114,115,116,117,118,119,120,121,124,125,126,127,128,129,130,131,132,134,135,136,137,138,139,140,141,142,144,145,146,149,150,151,152,153,154,155,156,157,158,159,160,161,162,163,165,2,1,2,0,0,11,0,1,2,3,4,5,6,7,8,9,10,11,12,13,14,15,16,17,18,19,20,21,22,23,24,25,26,27,28,29,30,31,32,33,34,35,36,37,38,39,41,42,43,44,45,46,47,48,49,50,51,54,55,56,57,58,59,60,61,62,63,64,65,66,67,68,69,70,71,72,73,74,75,76,77,78,79,80,81,82,84,85,86,87,88,89,90,91,92,93,94,95,96,97,99,100,101,102,103,104,105,106,107,108,109,110,111,112,113,114,116,117,118,119,120,121,122,123,124,125,127,128,129,130,131,133,134,135,137,138,139,140,141,142,143,144,145,146,147,148,149,150,151,152,153,154,155,0,1,2,3,5,6,7,9,11,12,13,16,17,18,19,20,21,22,23,24,25,26,27,28,29,30,31,32,33,34,35,36,37,38,39,40,41,42,43,44,45,46,47,48,49,50,51,52,53,54,55,56,58,59,60,61,62,63,64,65,66,68,69,70,71,72,73,74,75,76,77,78,79,80,81,82,83,84,85,86,87,88,89,90,91,92,93,94,95,96,97,98,99,100,101,1,5,7,26,31,38,42,46,2,1,7,2,3,4,5,6,7,8,9,10,11,12,13,14,15,16,17,18,19,20,21,22,23,24,25,26,27,28,29,30,31,32,33,34,35,36,37,38,39,40,41,42,43,44,45,46,47,48,49,50,51,52,53,54,55,56,57,58,59,60,61,62,63,64,65,66,67,68,69,70,71,72,73,74,75,76,77,78,79,80,81,82,83,84,85,86,87,88,89,90,91,92,93,94,95,96,97,98,99,100,101,102,0,1,2,3,4,5,6,7,8,9,10,11,12,13,14,15,16,17,18,19,20,21,22,23,24,25,26,27,28,29,30,31,32,33,34,35,99,156,0,1,2,0,1,2,3,4,5,6,8,9,10,11,12,13,14,15,16,17,18,19,20,21,22,23,24,25,26,27,28,29,30,31,32,33,34,35,36,37,38,39,40,41,42,43,44,45,46,47,48,49,50,51,52,53,54,55,56,57,58,59,60,61,62,63,2,3,0,1,2,3,4,5,6,7,8,9,10,11,12,13,14,15,16,17,18,19,20,21,22,23,24,25,26,27,28,29,30,31,32,33,34,35,36,37,38,39,40,41,42,44,45,46,47,49,50,51,52,53,54,55,56,57,58,59,60,61,62,63,64,65,66,67,68,69,71,72,74,75,76,77,78,79,80,81,82,83,84,85,86,87,88,90,91,92,93,94,95,96,97,98,99,100,101,102,103,104,105,106,107,108,109,112,113,117,118,119,120,121,122,123,124,125,127,128,129,130,131,132,133,134,135,137,138,139,140,141,142,143,144,145,146,147,148,149,150,151,152,153,154,155,156,157,158,159,160,161,162,163,164,165,0,1,2,4,5,0,1,2,3,4,5,6,7,10,11,12,13,14,15,16,17,18,19,20,21,92,0,0,11,13,16,18,36,47,77,0,14,0,1,2,3,5,6,0,3,4,5,6,7,8,9,10,11,12,13,14,15,16,17,18,19,20,21,22,23,24,25,26,27,28,29,30,31,32,33,34,35,36,37,38,39,40,41,42,43,44,45,46,47,48,49,50,51,52,53,54,55,56,57,58,59,60,61,62,63,64,65,66,67,68,69,70,71,72,73,74,75,76,77,78,79,80,81,82,83,84,85,86,87,88,89,90,91,92,93,94,95,96,97,98,99,100,101,102,0,1,2,3,4,5,6,7,8,9,10,11,12,13,14,15,16,17,18,19,20,21,22,23,24,25,26,27,28,29,30,31,32,33,34,35,36,37,39,40,41,42,43,44,45,46,1,2,3,0,1,2,3,6,7,0,0,1,9,15,21,26,0,2,3,4,5,6,0,1,0,1,2,3,4,5,6,7,8,9,10,11,12,13,14,15,16,17,18,19,20,21,22,23,24,25,26,27,28,29,30,31,32,33,34,35,36,37,38,39,40,41,42,44,45,46,47,49,50,51,52,53,54,55,56,57,58,59,60,61,62,63,64,65,66,67,68,69,70,71,72,73,74,75,76,77,78,79,80,81,82,83,84,85,86,87,88,89,90,91,92,93,94,95,96,97,98,99,100,101,102,103,104,105,106,107,108,109,111,112,113,116,117,118,119,120,121,122,123,124,125,126,127,128,129,130,131,132,133,134,135,137,138,139,140,141,142,143,144,145,146,147,148,149,150,151,152,153,154,155,156,157,158,159,160,161,162,163,164,165,0,1,1,2,3,4,5,6,7,8,9,10,11,12,13,14,15,16,17,18,19,20,21,22,23,24,25,27,28,29,30,31,32,33,34,35,4,5,1,4,0,0,0,5,6,0,1,2,3,4,5,6,10,12,14,15,16,17,18,19,20,21,22,23,24,25,26,2,12,15,18,24,36,57,67,77,0,1,2,3,4,5,6,7,8,9,10,11,12,13,14,15,16,17,18,19,20,21,22,23,24,25,27,28,29,30,31,32,33,34,35,36,37,38,1],"categories_nodes":[0,1,2,3,4,5,6,7,8,9,10,11,12,13,14,15,16,17,18,19,21,22,23,24,25,26,27,28,29,30,33,35,36,37,38,39,40,42,43,44,45,46,48,49,50,51,52,53,54,55,56,57,59,60],"categories_segments":[0,97,114,121,269,270,295,302,454,455,457,458,460,607,702,710,711,713,814,852,855,918,920,1074,1079,1100,1101,1102,1109,1111,1117,1218,1219,1264,1267,1273,1274,1275,1280,1286,1288,1448,1449,1450,1484,1486,1488,1489,1490,1493,1515,1516,1524,1562],"categories_sizes":[97,17,7,148,1,25,7,152,1,2,1,2,147,95,8,1,2,101,38,3,63,2,154,5,21,1,1,7,2,6,101,1,45,3,6,1,1,5,6,2,160,1,1,34,2,2,1,1,3,22,1,8,38,1],"default_left":[0,1,1,0,1,1,1,0,1,1,1,1,0,0,1,1,1,0,1,1,0,1,1,0,1,1,1,1,1,1,1,0,0,0,0,1,1,1,1,1,1,0,1,1,1,0,1,0,1,1,1,1,1,1,1,1,1,1,0,1,1,0,0,0,0,0,0,0,0,0,0,0,0,0,0,0,0,0,0,0,0,0,0,0,0,0,0,0,0,0,0,0,0,0,0,0,0,0,0,0,0,0,0,0,0,0,0,0,0],"id":2,"left_children":[1,3,5,7,9,11,13,15,17,19,21,23,25,27,29,31,33,35,37,39,-1,41,43,45,47,49,51,53,55,57,59,-1,-1,61,-1,63,65,67,69,71,73,-1,75,77,79,81,83,-1,85,87,89,91,93,95,97,99,101,103,-1,105,107,-1,-1,-1,-1,-1,-1,-1,-1,-1,-1,-1,-1,-1,-1,-1,-1,-1,-1,-1,-1,-1,-1,-1,-1,-1,-1,-1,-1,-1,-1,-1,-1,-1,-1,-1,-1,-1,-1,-1,-1,-1,-1,-1,-1,-1,-1,-1,-1],"loss_changes":[1.2105927E2,2.5554092E1,6.3460976E1,1.4002243E1,1.6615768E1,1.3940299E1,1.7802658E1,5.658325E0,1.01321335E1,4.937377E0,7.319862E0,1.2363836E1,1.857782E1,1.5815868E1,1.3128769E1,2.8401566E-1,4.9889145E0,1.1073372E1,7.6667604E0,4.777193E0,0E0,5.7969904E0,1.829315E0,8.651951E0,1.3048925E0,6.3922276E0,8.397472E0,4.576857E0,6.2761574E0,1.0556671E1,8.638702E0,0E0,0E0,3.851017E0,0E0,3.2137985E0,9.140159E0,1.0259342E-1,7.773817E0,7.37306E-1,2.7982626E0,0E0,4.873265E0,1.9157857E0,3.564973E-1,1.0642796E0,5.9159303E0,0E0,7.477255E-1,1.8537931E0,3.4896712E0,6.355049E0,8.826903E0,4.7799387E0,2.230856E0,5.722639E0,4.824808E0,7.7370453E0,0E0,6.246434E-1,1.603817E0,0E0,0E0,0E0,0E0,0E0,0E0,0E0,0E0,0E0,0E0,0E0,0E0,0E0,0E0,0E0,0E0,0E0,0E0,0E0,0E0,0E0,0E0,0E0,0E0,0E0,0E0,0E0,0E0,0E0,0E0,0E0,0E0,0E0,0E0,0E0,0E0,0E0,0E0,0E0,0E0,0E0,0E0,0E0,0E0,0E0,0E0,0E0,0E0],"parents":[2147483647,0,0,1,1,2,2,3,3,4,4,5,5,6,6,7,7,8,8,9,9,10,10,11,11,12,12,13,13,14,14,15,15,16,16,17,17,18,18,19,19,21,21,22,22,23,23,24,24,25,25,26,26,27,27,28,28,29,29,30,30,33,33,35,35,36,36,37,37,38,38,39,39,40,40,42,42,43,43,44,44,45,45,46,46,48,48,49,49,50,50,51,51,52,52,53,53,54,54,55,55,56,56,57,57,59,59,60,60],"right_children":[2,4,6,8,10,12,14,16,18,20,22,24,26,28,30,32,34,36,38,40,-1,42,44,46,48,50,52,54,56,58,60,-1,-1,62,-1,64,66,68,70,72,74,-1,76,78,80,82,84,-1,86,88,90,92,94,96,98,100,102,104,-1,106,108,-1,-1,-1,-1,-1,-1,-1,-1,-1,-1,-1,-1,-1,-1,-1,-1,-1,-1,-1,-1,-1,-1,-1,-1,-1,-1,-1,-1,-1,-1,-1,-1,-1,-1,-1,-1,-1,-1,-1,-1,-1,-1,-1,-1,-1,-1,-1,-1],"split_conditions":[NaN,NaN,NaN,NaN,NaN,NaN,NaN,NaN,NaN,NaN,NaN,NaN,NaN,NaN,NaN,NaN,NaN,NaN,NaN,NaN,-5.3010434E-1,NaN,NaN,NaN,NaN,NaN,NaN,NaN,NaN,NaN,NaN,3.1678155E-1,8.126863E-2,NaN,-2.039686E-1,NaN,NaN,NaN,NaN,NaN,NaN,3.2964402E-1,NaN,NaN,NaN,NaN,NaN,3.9716735E-2,NaN,NaN,NaN,NaN,NaN,NaN,NaN,NaN,NaN,NaN,-4.35535E-1,NaN,NaN,2.3131557E-1,1.2017739E-1,3.542945E-2,2.7987942E-1,1.1507686E-1,-1.3336834E-1,2.988576E-1,7.345777E-2,6.991497E-2,-2.6323557E-1,2.645503E-1,2.131248E-2,-3.289171E-1,-9.078888E-2,7.9683036E-2,-1.677326E-1,2.2997355E-1,-1.7685936E-1,-8.141217E-2,-3.1057572E-1,2.683736E-1,1.6188315E-1,3.8753994E-2,1.9386818E-1,-2.663233E-1,-3.2201514E-2,2.5024688E-1,-9.2173845E-2,1.2723501E-1,-2.834117E-1,-1.2143258E-1,-3.8456255E-1,1.694317E-1,-1.9533028E-1,-1.4228095E-1,1.0534641E-1,2.874601E-1,9.390963E-2,7.6062925E-2,-1.1822693E-1,-3.2726198E-1,8.857493E-2,-9.978114E-2,-2.0869735E-1,2.3547022E-1,-2.3229674E-2,-3.2621875E-1,-5.534515E-1],"split_indices":[1,12,2,2,9,1,12,2,6,5,12,12,2,1,11,9,11,1,2,4,0,11,1,2,5,1,9,0,1,12,4,0,0,1,0,9,11,5,12,3,3,0,11,4,4,2,7,0,8,11,5,12,0,9,4,12,6,1,0,11,12,0,0,0,0,0,0,0,0,0,0,0,0,0,0,0,0,0,0,0,0,0,0,0,0,0,0,0,0,0,0,0,0,0,0,0,0,0,0,0,0,0,0,0,0,0,0,0,0],"split_type":[1,1,1,1,1,1,1,1,1,1,1,1,1,1,1,1,1,1,1,1,0,1,1,1,1,1,1,1,1,1,1,0,0,1,0,1,1,1,1,1,1,0,1,1,1,1,1,0,1,1,1,1,1,1,1,1,1,1,0,1,1,0,0,0,0,0,0,0,0,0,0,0,0,0,0,0,0,0,0,0,0,0,0,0,0,0,0,0,0,0,0,0,0,0,0,0,0,0,0,0,0,0,0,0,0,0,0,0,0],"sum_hessian":[1.3207079E3,5.612038E2,7.59504E2,4.105442E2,1.506596E2,3.1407358E2,4.4543048E2,1.8803677E2,2.2250743E2,2.5523745E1,1.2513586E2,2.3237059E2,8.1702995E1,1.5543712E2,2.8999335E2,4.7863747E1,1.4017302E2,1.9384573E2,2.8661695E1,2.2857767E1,2.6659772E0,1.1675187E2,8.383982E0,2.1995935E2,1.2411235E1,2.5019695E1,5.66833E1,5.0366722E1,1.050704E2,2.6324167E2,2.6751698E1,4.6575478E1,1.288271E0,1.3807336E2,2.0996666E0,5.0675514E1,1.4317021E2,4.4456534E0,2.4216042E1,3.8781457E0,1.8979622E1,6.9685473E0,1.09783325E2,2.186449E0,6.1975327E0,5.0228943E1,1.6973041E2,1.4870362E0,1.0924199E1,1.9214962E1,5.8047333E0,3.4793686E1,2.1889614E1,2.6649998E1,2.3716722E1,8.620218E1,1.8868216E1,2.5235126E2,1.0890407E1,2.2305658E0,2.4521132E1,9.235356E1,4.57198E1,5.761798E0,4.4913715E1,1.2916096E2,1.4009251E1,3.4145877E0,1.0310658E0,1.0351456E1,1.3864587E1,1.2374384E0,2.6407073E0,7.8741846E0,1.1105437E1,1.03014114E2,6.7692094E0,1.0722542E0,1.1141949E0,1.698277E0,4.4992557E0,1.7885214E1,3.2343727E1,1.4440114E2,2.5329264E1,9.188194E0,1.7360052E0,1.8172882E1,1.0420798E0,2.4945495E0,3.310184E0,1.9045073E1,1.5748615E1,1.1070156E1,1.0819457E1,1.1273872E1,1.5376125E1,9.308458E0,1.4408264E1,1.615316E1,7.004902E1,1.6366846E1,2.5013688E0,1.5461838E2,9.773288E1,1.104429E0,1.1261368E0,1.5696496E1,8.824636E0],"tree_param":{"num_deleted":"0","num_feature":"13","num_nodes":"109","size_leaf_vector":"1"}},{"base_weights":[4.610229E-2,4.2060813E-1,-9.923491E-2,6.277651E-1,2.9421636E-1,2.1227925E-1,-2.4164945E-1,6.674328E-1,-7.3800856E-1,3.7462372E-1,-2.504432E-1,4.7245303E-1,5.4819737E-2,-2.1230772E-1,-1.2849059E0,3.269242E-1,5.844091E-1,-5.386426E-2,-2.8569767E-1,-1.1738373E0,4.0704456E-1,5.5360705E-1,-6.075217E-1,6.926344E-1,1.3796881E-1,1.6521138E-1,-6.8332034E-1,-8.9186154E-2,-4.5783255E-1,-8.9579624E-1,-4.471694E-1,9.1066045E-1,4.9143216E-1,-1.0698792E-1,-4.7162277E-1,-1.9966018E-1,4.880849E-1,6.749633E-1,-5.2384924E-2,2.1305074E-1,-8.232026E-1,3.238568E-1,8.818679E-1,3.0449352E-1,-4.3887037E-1,6.7391086E-1,2.9657286E-2,1.7665865E-1,-9.681399E-1,-2.035248E-2,-7.597409E-1,-5.277308E-1,3.6507737E-2,-2.696575E-2,-1.0171443E0,3.037752E-1,-2.6979367E-3,1.8452823E-1,3.9542597E-2,1.2119692E-1,-2.1317989E-1,2.3586173E-1,1.012629E-1,2.4524114E-1,2.0249985E-2,-1.6917124E-1,-4.2622837E-1,2.230012E-1,-1.8988492E-2,2.906944E-1,3.68157E-2,1.3468894E-1,-6.113478E-2,8.955998E-2,-3.4074247E-1,2.216817E-1,-1.5518832E-1,9.804425E-2,-4.921527E-2,-1.3087322E-1,2.9714984E-1,-2.214264E-3,-3.8511714E-1,2.3900501E-1,-1.964897E-2,-1.4440332E-3,-2.95956E-1,-1.18964136E-1,-2.479304E-1,1.3242924E-1,-1.1474773E-1,-3.3606818E-1,-8.1544906E-2],"categories":[0,3,4,5,6,7,8,9,10,11,12,13,14,15,16,17,18,19,20,21,22,23,24,25,26,27,29,30,31,32,33,34,35,36,37,38,39,40,41,42,43,44,45,46,47,48,49,50,51,52,53,54,55,56,57,58,59,60,61,62,63,64,65,66,67,68,69,70,71,72,73,74,75,76,77,78,79,80,81,82,83,84,85,86,87,88,89,90,91,92,93,94,95,96,97,98,99,100,101,102,0,2,3,4,5,6,7,8,9,10,11,12,13,14,15,16,17,18,19,20,21,22,23,24,25,26,27,28,29,30,31,32,33,34,36,37,38,39,40,41,42,43,44,45,46,47,48,49,50,51,52,56,57,58,59,60,61,62,63,64,65,66,67,68,69,71,72,73,74,75,76,77,78,79,80,81,82,83,84,85,86,87,88,90,91,92,93,94,95,96,97,98,99,100,101,102,103,104,105,106,107,108,109,110,112,113,114,115,116,117,118,119,120,121,122,123,124,125,126,127,128,129,130,131,132,134,135,136,137,138,139,140,141,142,144,145,146,149,150,151,152,153,154,155,157,158,159,160,161,162,163,164,165,0,1,2,5,14,31,35,49,55,78,83,99,107,112,143,147,148,156,0,2,0,1,2,4,8,9,11,12,13,14,16,17,19,20,21,22,23,24,25,26,27,28,29,31,32,33,34,35,36,37,38,39,40,41,42,43,44,45,46,47,48,49,50,51,52,54,55,56,58,59,60,61,62,63,64,65,66,68,69,70,71,72,73,74,75,76,77,78,79,80,81,82,83,84,85,86,87,88,89,90,91,92,93,94,95,96,97,98,99,100,101,102,0,0,1,2,3,4,5,6,7,8,9,10,11,12,13,14,15,16,17,18,19,20,21,22,23,24,25,26,27,28,29,30,31,32,33,34,36,37,38,39,40,41,42,43,44,45,46,47,48,49,50,51,52,53,54,55,56,57,58,59,60,61,62,63,64,65,66,67,68,69,71,72,73,74,75,76,77,78,79,80,81,82,83,84,85,86,87,88,90,91,92,93,94,95,96,97,98,99,100,101,102,103,104,105,106,107,108,109,110,112,113,114,115,116,117,118,119,120,121,122,123,124,125,126,127,128,129,130,131,132,133,134,135,136,137,138,139,140,141,142,144,145,146,149,150,151,152,153,154,155,157,158,159,160,161,162,163,164,165,1,0,0,1,2,3,0,1,4,8,12,13,14,15,16,17,18,19,20,21,22,23,24,25,26,27,28,29,30,5,15,26,31,47,50,11,12,16,18,19,21,24,29,36,47,57,67,77,92,0,0,2,3,4,6,2,0,5,0,1,2,3,4,5,6,7,8,9,10,11,12,13,14,15,16,17,18,19,20,21,22,23,24,25,26,27,28,29,30,31,32,33,34,35,36,37,38,39,40,41,42,43,44,45,46,47,48,49,50,51,52,53,54,55,56,57,58,59,60,61,62,63,64,65,66,67,68,69,70,71,72,73,74,75,76,77,78,79,80,81,82,83,84,85,86,87,88,89,90,91,92,93,94,95,96,97,98,99,100,101,102,103,104,105,106,107,108,109,0,1,2,3,0,1,2,3,4,5,6,7,8,9,10,11,12,13,14,15,16,17,18,19,20,21,22,23,24,25,26,27,28,29,30,31,32,33,34,35,36,37,38,39,40,41,42,43,44,45,46,47,48,49,50,51,52,53,54,55,56,57,58,59,60,61,62,63,64,65,66,67,68,69,70,71,72,73,74,75,76,77,78,80,81,82,83,84,85,86,87,88,89,90,91,92,93,94,95,96,97,99,100,101,102,103,104,105,106,107,108,109,112,113,116,117,118,119,120,121,123,124,125,127,128,129,130,131,132,133,134,135,137,138,139,140,141,142,143,144,145,146,147,148,149,150,151,152,153,154,155,156,157,158,159,160,161,162,163,164,165,0,1,4,6,1,7,15,21,26,2,0,1,2,3,4,5,6,7,8,9,10,11,12,13,14,15,16,17,18,19,20,21,22,23,24,25,26,27,28,29,30,31,32,33,34,35,36,1,4,6,0,3,0,2,3,4,5,6,7,8,9,10,11,12,13,14,15,16,17,18,19,20,21,22,23,24,25,26,27,28,29,30,31,32,33,34,35,36,37,38,39,40,41,42,43,44,45,46,47,48,49,50,51,52,53,54,55,56,57,58,59,60,61,62,63,64,65,66,67,68,69,70,71,72,73,74,75,76,77,78,79,80,81,82,83,84,85,86,87,88,89,90,91,92,93,94,95,96,97,98,99,100,101,102,2,0,0,1,2,3,4,5,6,7,8,9,10,11,12,13,14,15,16,17,18,19,20,21,22,23,24,25,26,27,28,29,30,31,32,33,34,35,36,37,38,39,40,41,42,43,44,45,46,47,48,49,50,51,52,55,56,57,58,59,60,61,62,63,64,65,66,67,68,69,70,71,72,73,74,75,76,77,78,79,80,81,82,83,84,85,86,87,88,89,90,91,92,93,94,95,96,97,98,99,100,101,102,103,104,105,106,107,108,109,110,111,112,113,114,116,117,118,119,120,121,122,123,124,125,126,127,128,129,130,131,134,135,136,137,138,139,140,141,142,143,144,145,146,147,148,149,150,151,152,153,154,155,156,157,158,159,160,161,162,163,164,1,2,0,1,2,3,4,5,6,7,8,9,10,11,12,13,14,15,16,17,18,19,20,21,22,23,24,25,111,115,0,3,4,5,6,1,2,3,4,5,6,7,8,9,10,11,12,13,14,15,16,17,18,19,20,21,22,23,24,25,26,27,28,29,30,31,32,33,34,35,36,37,39,40,41,43,44,45,47,48,49,50,51,0,1,2,5,8,9,11,0,1,2,3,4,5,6,7,8,9,10,11,12,13,14,15,16,17,18,19,20,21,22,23,24,25,26,27,28,29,30,31,32,33,34,35,36,37,38,39,40,41,42,43,44,45,46,47,48,49,50,51,52,53,54,0,1,2,3,5,0,1,2,3,4,5,6,7,12,13,14,15,16,17,18,19,20,21,22,23,24,25,26,27,28,29,30,1,2,4,5,6,11,16,18,19,21,36,67,77,0,1,5,0,1,2,3,4],"categories_nodes":[0,1,2,3,4,5,6,7,8,9,10,11,12,13,14,16,19,20,21,22,23,24,25,26,27,28,29,31,32,35,36,37,40,41,42,43,44,45,46,47,48,49,50,51,52,54],"categories_segments":[0,100,253,271,272,273,365,366,524,525,526,530,553,559,573,574,579,580,581,582,692,693,696,853,857,862,863,900,901,903,905,1007,1008,1009,1169,1171,1199,1204,1252,1259,1314,1319,1346,1351,1359,1362],"categories_sizes":[100,153,18,1,1,92,1,158,1,1,4,23,6,14,1,5,1,1,1,110,1,3,157,4,5,1,37,1,2,2,102,1,1,160,2,28,5,48,7,55,5,27,5,8,3,5],"default_left":[0,0,1,1,1,0,1,0,1,1,1,1,1,1,1,0,1,0,0,1,1,1,0,1,1,0,1,1,1,1,0,1,1,0,0,1,0,1,0,0,1,0,1,1,1,1,1,1,1,1,1,1,1,0,1,0,0,0,0,0,0,0,0,0,0,0,0,0,0,0,0,0,0,0,0,0,0,0,0,0,0,0,0,0,0,0,0,0,0,0,0,0,0],"id":3,"left_children":[1,3,5,7,9,11,13,15,17,19,21,23,25,27,29,-1,31,-1,-1,33,35,37,39,41,43,45,47,49,51,53,-1,55,57,-1,-1,59,61,63,-1,-1,65,67,69,71,73,75,77,79,81,83,85,87,89,-1,91,-1,-1,-1,-1,-1,-1,-1,-1,-1,-1,-1,-1,-1,-1,-1,-1,-1,-1,-1,-1,-1,-1,-1,-1,-1,-1,-1,-1,-1,-1,-1,-1,-1,-1,-1,-1,-1,-1],"loss_changes":[6.931747E1,9.137138E0,4.076562E1,7.7537766E0,9.860012E0,1.1791349E1,1.9020409E1,3.948204E0,3.386097E-1,1.025293E1,8.744483E0,7.9044323E0,1.4847984E1,1.8526907E1,2.8650284E-2,0E0,2.93293E0,0E0,0E0,8.227229E-1,9.51124E0,9.600079E-1,6.4835534E0,4.268347E0,4.3956423E0,1.0882866E1,5.981125E0,1.892395E1,7.0992737E0,7.3000383E-1,0E0,2.2159328E0,3.872383E0,0E0,0E0,7.464439E0,7.327938E0,6.697109E-1,0E0,0E0,2.034316E0,3.897671E0,2.694767E0,2.6630378E0,5.6576657E0,2.955657E0,7.3001094E0,3.7976563E0,5.4400463E0,1.3815793E1,6.53039E0,6.7091827E0,4.6340995E0,0E0,2.4893808E-1,0E0,0E0,0E0,0E0,0E0,0E0,0E0,0E0,0E0,0E0,0E0,0E0,0E0,0E0,0E0,0E0,0E0,0E0,0E0,0E0,0E0,0E0,0E0,0E0,0E0,0E0,0E0,0E0,0E0,0E0,0E0,0E0,0E0,0E0,0E0,0E0,0E0,0E0],"parents":[2147483647,0,0,1,1,2,2,3,3,4,4,5,5,6,6,7,7,8,8,9,9,10,10,11,11,12,12,13,13,14,14,16,16,19,19,20,20,21,21,22,22,23,23,24,24,25,25,26,26,27,27,28,28,29,29,31,31,32,32,35,35,36,36,37,37,40,40,41,41,42,42,43,43,44,44,45,45,46,46,47,47,48,48,49,49,50,50,51,51,52,52,54,54],"right_children":[2,4,6,8,10,12,14,16,18,20,22,24,26,28,30,-1,32,-1,-1,34,36,38,40,42,44,46,48,50,52,54,-1,56,58,-1,-1,60,62,64,-1,-1,66,68,70,72,74,76,78,80,82,84,86,88,90,-1,92,-1,-1,-1,-1,-1,-1,-1,-1,-1,-1,-1,-1,-1,-1,-1,-1,-1,-1,-1,-1,-1,-1,-1,-1,-1,-1,-1,-1,-1,-1,-1,-1,-1,-1,-1,-1,-1,-1],"split_conditions":[NaN,NaN,NaN,NaN,NaN,NaN,NaN,NaN,NaN,NaN,NaN,NaN,NaN,NaN,NaN,3.269242E-1,NaN,-5.386426E-2,-2.8569767E-1,NaN,NaN,NaN,NaN,NaN,NaN,NaN,NaN,NaN,NaN,NaN,-4.471694E-1,NaN,NaN,-1.0698792E-1,-4.7162277E-1,NaN,NaN,NaN,-5.2384924E-2,2.1305074E-1,NaN,NaN,NaN,NaN,NaN,NaN,NaN,NaN,NaN,NaN,NaN,NaN,NaN,-2.696575E-2,NaN,3.037752E-1,-2.6979367E-3,1.8452823E-1,3.9542597E-2,1.2119692E-1,-2.1317989E-1,2.3586173E-1,1.012629E-1,2.4524114E-1,2.0249985E-2,-1.6917124E-1,-4.2622837E-1,2.230012E-1,-1.8988492E-2,2.906944E-1,3.68157E-2,1.3468894E-1,-6.113478E-2,8.955998E-2,-3.4074247E-1,2.216817E-1,-1.5518832E-1,9.804425E-2,-4.921527E-2,-1.3087322E-1,2.9714984E-1,-2.214264E-3,-3.8511714E-1,2.3900501E-1,-1.964897E-2,-1.4440332E-3,-2.95956E-1,-1.18964136E-1,-2.479304E-1,1.3242924E-1,-1.1474773E-1,-3.3606818E-1,-8.1544906E-2],"split_indices":[1,2,2,12,6,1,12,2,7,10,12,12,11,1,3,0,4,0,0,7,9,5,2,9,5,2,4,11,6,1,0,8,5,0,0,4,1,8,0,0,5,2,5,2,4,11,12,2,12,12,12,1,5,0,1,0,0,0,0,0,0,0,0,0,0,0,0,0,0,0,0,0,0,0,0,0,0,0,0,0,0,0,0,0,0,0,0,0,0,0,0,0,0],"split_type":[1,1,1,1,1,1,1,1,1,1,1,1,1,1,1,0,1,0,0,1,1,1,1,1,1,1,1,1,1,1,0,1,1,0,0,1,1,1,0,0,1,1,1,1,1,1,1,1,1,1,1,1,1,0,1,0,0,0,0,0,0,0,0,0,0,0,0,0,0,0,0,0,0,0,0,0,0,0,0,0,0,0,0,0,0,0,0,0,0,0,0,0,0],"sum_hessian":[1.2717576E3,3.5502716E2,9.1673035E2,1.3302745E2,2.2199973E2,2.8745898E2,6.292714E2,1.2976973E2,3.2577283E0,1.9371416E2,2.8285572E1,1.0762589E2,1.7983308E2,6.132278E2,1.604361E1,1.9328115E1,1.1044161E2,1.4131494E0,1.8445789E0,3.250694E0,1.9046346E2,8.529323E0,1.9756248E1,6.425675E1,4.3369133E1,1.5711249E2,2.2720589E1,4.0932816E2,2.0389961E2,7.399457E0,8.644153E0,2.2543419E1,8.7898186E1,1.686139E0,1.564555E0,2.2270754E1,1.681927E2,7.3736615E0,1.1556615E0,2.4563882E0,1.729986E1,2.271034E1,4.1546417E1,3.4020164E1,9.34897E0,3.2221603E1,1.2489089E2,5.747237E0,1.697335E1,3.72156E2,3.717215E1,1.785812E2,2.5318409E1,1.1961544E0,6.2033024E0,2.0203278E1,2.3401413E0,6.4878395E1,2.301979E1,1.0305101E1,1.1965652E1,5.501769E1,1.1317501E2,5.69252E0,1.6811416E0,1.3420141E1,3.879719E0,1.0458499E1,1.2251842E1,3.702172E1,4.524696E0,2.6581484E1,7.4386806E0,4.8203692E0,4.5286007E0,3.091369E1,1.3079135E0,4.9014046E1,7.587685E1,3.5429864E0,2.2042508E0,4.4498076E0,1.2523543E1,1.8614565E1,3.5354144E2,8.822857E0,2.8349293E1,1.2570296E2,5.2878242E1,1.2848269E1,1.247014E1,5.0077105E0,1.1955918E0],"tree_param":{"num_deleted":"0","num_feature":"13","num_nodes":"93","size_leaf_vector":"1"}},{"base_weights":[3.769977E-2,-1.8032712E-1,1.9092466E-1,7.2653554E-2,-3.754904E-1,2.8909236E-1,-2.0417951E-1,4.9494693E-1,-5.0420612E-2,-2.4164623E-1,-8.6045E-1,8.587802E-1,2.3247719E-1,2.9267406E-1,-4.8606285E-1,6.500777E-1,-2.053289E-1,-2.0976415E-1,3.4880346E-1,1.504124E-1,-3.8276038E-1,-5.885132E-1,-1.1988616E0,9.011938E-1,-8.657879E-2,-5.952679E-1,2.6368487E-1,4.878468E-1,-2.659965E-1,-1.8065988E-1,-5.889513E-1,7.0799524E-1,-1.5267543E-1,2.2781684E-1,-6.630735E-1,1.0766528E-1,-3.8325927E-1,5.001315E-1,-7.52812E-1,5.176722E-1,-7.388262E-2,4.070966E-1,-4.5685357E-1,3.495415E-2,-7.717563E-1,-6.396864E-1,-1.3548697E0,1.019554E0,6.1523426E-1,3.183173E-2,-1.4521421E0,7.441149E-1,2.102859E-1,5.888427E-1,-2.3714271E-1,6.049148E-1,-8.076756E-1,2.0735613E-1,-7.47337E-1,-3.4211642E-1,-8.165871E-1,2.4077052E-1,-2.145637E-2,-5.2579537E-2,-3.048062E-1,7.415514E-2,-3.2414132E-1,1.1893872E-1,-1.5382135E-1,2.3365624E-1,2.2602724E-2,-3.7354574E-2,-2.942925E-1,2.78333E-1,2.4646467E-2,2.57609E-1,-7.552295E-2,1.8670997E-1,-2.6858252E-1,-4.1829172E-1,-1.2005325E-1,1.8869478E-1,-1.2163753E-1,-1.0157714E-1,-3.1072176E-1,-2.9647037E-1,3.3579443E-2,-4.296925E-1,-1.4667669E-1,3.3382893E-1,2.212862E-1,2.544025E-1,1.2818572E-1,1.07403345E-1,-3.5327446E-1,-1.568628E-1,-5.734689E-1,2.3665978E-1,2.0277387E-2,1.1325352E-1,2.229949E-2,2.167778E-1,-4.199728E-2,1.6438763E-1,-2.2546673E-1,3.0094743E-1,-4.304504E-2,1.1420103E-1,-3.8529322E-1,1.5334925E-1,-1.18848965E-1,-2.7328458E-1,6.956678E-2,8.334161E-2,-1.6180058E-1,6.525462E-2,-2.899103E-1],"categories":[0,5,21,27,35,40,49,54,73,89,94,98,99,107,122,133,152,6,8,9,10,11,12,13,14,15,16,17,18,20,21,22,29,36,47,0,3,5,6,7,9,10,11,12,13,14,16,18,19,20,22,23,24,25,26,27,28,30,31,32,33,34,35,36,37,38,39,40,41,42,43,44,45,46,48,49,50,51,52,53,54,55,56,57,58,59,60,61,62,63,64,65,66,68,69,70,71,72,73,74,75,76,77,78,79,80,81,82,83,84,85,86,87,88,89,90,91,92,93,94,95,96,97,98,99,100,101,102,4,5,16,27,36,47,67,77,92,0,1,2,3,4,5,6,15,18,19,20,21,22,23,24,25,26,27,28,29,30,0,1,2,3,4,6,7,8,55,83,99,107,111,115,122,147,148,1,3,2,0,1,2,3,6,7,11,12,13,14,15,16,17,18,19,20,21,22,23,24,1,3,26,0,1,2,3,4,5,6,7,8,9,10,11,12,13,14,15,16,17,18,19,20,21,22,23,24,25,26,27,28,29,30,31,32,33,34,35,36,37,38,39,40,41,42,43,44,45,47,48,49,50,51,52,53,54,55,56,57,58,59,60,61,62,63,0,1,2,3,4,6,0,1,2,3,4,5,6,7,8,9,10,11,2,4,8,47,4,5,6,5,7,2,0,1,2,3,4,5,6,7,8,9,11,12,15,16,17,19,21,22,23,24,25,26,27,28,29,31,32,33,34,35,36,37,38,39,40,41,42,43,44,45,46,47,48,49,50,51,52,53,54,55,56,57,58,59,60,61,62,63,64,65,66,67,68,69,70,71,72,73,74,75,76,77,78,79,80,81,82,83,84,85,86,87,88,89,90,91,92,93,94,95,96,97,0,3,4,1,2,4,6,0,1,2,3,4,5,6,7,15,16,18,19,20,21,22,23,24,25,26,27,28,29,30,0,3,4,0,1,2,3,4,5,6,7,8,9,10,11,12,13,14,15,16,17,18,19,21,22,23,24,25,26,27,28,29,30,31,32,34,35,36,37,38,39,40,41,42,43,44,45,46,47,48,49,50,51,52,54,55,56,57,58,59,60,61,62,63,64,65,66,67,68,69,71,72,74,75,76,77,78,79,80,81,82,83,84,85,86,87,88,90,91,92,93,94,95,96,97,99,100,101,102,103,104,105,106,107,108,109,110,112,113,114,116,117,118,119,120,121,123,124,125,127,128,129,130,131,132,134,136,137,138,139,140,141,142,143,144,145,146,147,149,150,151,153,154,155,156,157,158,159,160,161,162,163,165,0,4,0,3,5,0,3,5,0,0,4,8,47,1,2,3,4,5,6,7,26,0,1,2,3,4,6,8,9,10,11,12,13,14,15,16,17,18,19,20,21,22,23,24,25,26,27,28,29,30,31,32,33,34,35,36,37,38,39,40,41,42,43,44,45,46,47,48,49,50,51,52,53,54,55,56,57,58,59,60,61,62,63,64,65,66,67,68,69,70,71,72,73,74,75,76,78,79,80,81,82,83,84,85,86,87,88,89,90,91,92,93,94,0,6,0,1,3,4,0,0,1,3,4,6,2,4,5,6,0,1,2,3,4,5,6,7,8,9,10,11,12,13,14,15,16,17,18,19,20,21,22,24,57,0,1,2,5,0,1,3,4,1,0,1,2,4,5,6,1,2,3,4,5,6,7,8,9,10,11,12,13,14,15,16,17,18,19,20,21,22,23,24,25,26,27,28,29,30,31,2,1,2,3,4,5,6,7,8,9,10,11,12,13,14,16,17,18,19,20,21,22,23,24,25,27,28,29,30,32,33,34,35,36,37,39,40,41,43,44,45,46,47,48,49,50,0,0,1,2,3,4,5,7,11,13,14,15,47,0,1,2,4,0,1,2,3,4,5,6,7,8,9,1,2,3,4,5,0,1,2,3,4,5,7,9,10,11,13,14,15,16,17,18,19,20,21,22,23,24,25,26,27,28,29,30,31,32,33,34,35,36,0,0,1,2,3,4,5,6,7,11,12,14,15,16,17,18,19,20,21,22,23,24,25,26,27,28,29,36,47,0,1,2,3,5,6,7,8,9],"categories_nodes":[0,1,2,3,4,5,6,7,8,9,10,11,12,13,14,15,16,17,18,19,20,21,22,23,25,26,27,28,29,30,31,34,35,36,37,38,39,40,41,42,43,44,45,46,47,48,49,50,51,52,53,54,55,56,57,58,59,60],"categories_segments":[0,1,17,35,128,137,158,175,177,178,198,200,201,202,264,270,282,286,289,291,292,384,387,391,414,417,567,569,572,575,576,578,580,588,680,682,686,687,692,696,721,725,729,730,731,732,736,767,768,813,814,826,830,840,845,879,880,908],"categories_sizes":[1,16,18,93,9,21,17,2,1,20,2,1,1,62,6,12,4,3,2,1,92,3,4,23,3,150,2,3,3,1,2,2,8,92,2,4,1,5,4,25,4,4,1,1,1,4,31,1,45,1,12,4,10,5,34,1,28,9],"default_left":[1,1,1,0,1,1,1,1,1,1,1,1,1,1,1,1,1,1,1,1,0,1,1,1,0,1,0,1,1,1,1,1,0,0,1,1,0,1,1,1,1,1,1,1,1,1,1,1,1,1,1,1,1,1,1,1,1,1,1,1,1,0,0,0,0,0,0,0,0,0,0,0,0,0,0,0,0,0,0,0,0,0,0,0,0,0,0,0,0,0,0,0,0,0,0,0,0,0,0,0,0,0,0,0,0,0,0,0,0,0,0,0,0,0,0,0,0],"id":4,"left_children":[1,3,5,7,9,11,13,15,17,19,21,23,25,27,29,31,33,35,37,39,41,43,45,47,-1,49,51,53,55,57,59,61,-1,-1,63,65,67,69,71,73,75,77,79,81,83,85,87,89,91,93,95,97,99,101,103,105,107,109,111,113,115,-1,-1,-1,-1,-1,-1,-1,-1,-1,-1,-1,-1,-1,-1,-1,-1,-1,-1,-1,-1,-1,-1,-1,-1,-1,-1,-1,-1,-1,-1,-1,-1,-1,-1,-1,-1,-1,-1,-1,-1,-1,-1,-1,-1,-1,-1,-1,-1,-1,-1,-1,-1,-1,-1,-1,-1],"loss_changes":[4.1148357E1,2.5130842E1,2.8110981E1,1.1576815E1,1.843311E1,1.849805E1,2.038306E1,5.5925055E0,1.1079205E1,1.25865E1,4.9749413E0,2.7922363E0,1.3814007E1,5.901875E0,2.802803E0,3.1378727E0,4.863489E0,6.8857813E0,8.666988E0,5.034665E0,9.94795E0,4.161422E0,1.4483452E0,1.0792885E0,0E0,1.0532718E1,1.2931698E1,3.0380392E0,7.2595425E0,5.602117E0,3.586975E0,2.9935017E0,0E0,0E0,1.0667026E0,7.677286E0,8.338362E0,5.189414E0,7.961261E-1,4.053707E0,6.607433E0,4.7161274E0,7.5695705E0,2.6558743E0,2.852438E0,2.1234455E0,6.3110733E-1,7.633209E-2,3.9372873E-1,5.252887E0,2.5304184E0,1.4797707E0,1.044219E1,3.5160599E0,2.6544905E0,1.9547193E0,5.743568E0,3.0422E0,1.8591595E0,4.396419E0,5.6431065E0,0E0,0E0,0E0,0E0,0E0,0E0,0E0,0E0,0E0,0E0,0E0,0E0,0E0,0E0,0E0,0E0,0E0,0E0,0E0,0E0,0E0,0E0,0E0,0E0,0E0,0E0,0E0,0E0,0E0,0E0,0E0,0E0,0E0,0E0,0E0,0E0,0E0,0E0,0E0,0E0,0E0,0E0,0E0,0E0,0E0,0E0,0E0,0E0,0E0,0E0,0E0,0E0,0E0,0E0,0E0,0E0],"parents":[2147483647,0,0,1,1,2,2,3,3,4,4,5,5,6,6,7,7,8,8,9,9,10,10,11,11,12,12,13,13,14,14,15,15,16,16,17,17,18,18,19,19,20,20,21,21,22,22,23,23,25,25,26,26,27,27,28,28,29,29,30,30,31,31,34,34,35,35,36,36,37,37,38,38,39,39,40,40,41,41,42,42,43,43,44,44,45,45,46,46,47,47,48,48,49,49,50,50,51,51,52,52,53,53,54,54,55,55,56,56,57,57,58,58,59,59,60,60],"right_children":[2,4,6,8,10,12,14,16,18,20,22,24,26,28,30,32,34,36,38,40,42,44,46,48,-1,50,52,54,56,58,60,62,-1,-1,64,66,68,70,72,74,76,78,80,82,84,86,88,90,92,94,96,98,100,102,104,106,108,110,112,114,116,-1,-1,-1,-1,-1,-1,-1,-1,-1,-1,-1,-1,-1,-1,-1,-1,-1,-1,-1,-1,-1,-1,-1,-1,-1,-1,-1,-1,-1,-1,-1,-1,-1,-1,-1,-1,-1,-1,-1,-1,-1,-1,-1,-1,-1,-1,-1,-1,-1,-1,-1,-1,-1,-1,-1,-1],"split_conditions":[NaN,NaN,NaN,NaN,NaN,NaN,NaN,NaN,NaN,NaN,NaN,NaN,NaN,NaN,NaN,NaN,NaN,NaN,NaN,NaN,NaN,NaN,NaN,NaN,-8.657879E-2,NaN,NaN,NaN,NaN,NaN,NaN,NaN,-1.5267543E-1,2.2781684E-1,NaN,NaN,NaN,NaN,NaN,NaN,NaN,NaN,NaN,NaN,NaN,NaN,NaN,NaN,NaN,NaN,NaN,NaN,NaN,NaN,NaN,NaN,NaN,NaN,NaN,NaN,NaN,2.4077052E-1,-2.145637E-2,-5.2579537E-2,-3.048062E-1,7.415514E-2,-3.2414132E-1,1.1893872E-1,-1.5382135E-1,2.3365624E-1,2.2602724E-2,-3.7354574E-2,-2.942925E-1,2.78333E-1,2.4646467E-2,2.57609E-1,-7.552295E-2,1.8670997E-1,-2.6858252E-1,-4.1829172E-1,-1.2005325E-1,1.8869478E-1,-1.2163753E-1,-1.0157714E-1,-3.1072176E-1,-2.9647037E-1,3.3579443E-2,-4.296925E-1,-1.4667669E-1,3.3382893E-1,2.212862E-1,2.544025E-1,1.2818572E-1,1.07403345E-1,-3.5327446E-1,-1.568628E-1,-5.734689E-1,2.3665978E-1,2.0277387E-2,1.1325352E-1,2.229949E-2,2.167778E-1,-4.199728E-2,1.6438763E-1,-2.2546673E-1,3.0094743E-1,-4.304504E-2,1.1420103E-1,-3.8529322E-1,1.5334925E-1,-1.18848965E-1,-2.7328458E-1,6.956678E-2,8.334161E-2,-1.6180058E-1,6.525462E-2,-2.899103E-1],"split_indices":[9,2,1,1,1,12,2,5,6,12,4,11,10,11,5,2,1,5,1,8,1,5,5,12,0,12,2,12,4,12,3,12,0,0,1,11,1,4,12,3,4,4,1,12,12,9,8,7,5,11,7,11,3,1,5,1,5,1,6,1,12,0,0,0,0,0,0,0,0,0,0,0,0,0,0,0,0,0,0,0,0,0,0,0,0,0,0,0,0,0,0,0,0,0,0,0,0,0,0,0,0,0,0,0,0,0,0,0,0,0,0,0,0,0,0,0,0],"split_type":[1,1,1,1,1,1,1,1,1,1,1,1,1,1,1,1,1,1,1,1,1,1,1,1,0,1,1,1,1,1,1,1,0,0,1,1,1,1,1,1,1,1,1,1,1,1,1,1,1,1,1,1,1,1,1,1,1,1,1,1,1,0,0,0,0,0,0,0,0,0,0,0,0,0,0,0,0,0,0,0,0,0,0,0,0,0,0,0,0,0,0,0,0,0,0,0,0,0,0,0,0,0,0,0,0,0,0,0,0,0,0,0,0,0,0,0,0],"sum_hessian":[1.2296926E3,5.0745187E2,7.222408E2,2.2126482E2,2.8618707E2,5.787201E2,1.4352065E2,4.925139E1,1.7201343E2,2.2546045E2,6.0726627E1,5.1033077E1,5.27687E2,5.193704E1,9.158361E1,4.0378174E1,8.873215E0,1.2328205E2,4.8731373E1,5.9654884E1,1.6580556E2,3.5188946E1,2.5537682E1,4.9420765E1,1.6123127E0,1.8515364E1,5.0917166E2,3.8584305E1,1.3352736E1,2.377332E1,6.781029E1,3.882703E1,1.5511415E0,2.6433175E0,6.229897E0,4.3702568E1,7.957948E1,4.3325752E1,5.4056225E0,2.2122915E1,3.753197E1,1.38342E1,1.5197136E2,8.176938E0,2.7012009E1,6.6832943E0,1.8854387E1,3.3138977E1,1.628179E1,1.1247086E1,7.268279E0,4.96386E1,4.5953308E2,3.4031307E1,4.5529966E0,5.075543E0,8.277194E0,1.4487501E1,9.285819E0,3.3734013E1,3.4076275E1,3.4599724E1,4.2273083E0,3.2435548E0,2.986342E0,3.9818756E1,3.883814E0,1.1039208E1,6.854027E1,2.5657345E1,1.7668407E1,1.8518573E0,3.553765E0,1.0811751E1,1.1311164E1,5.3984203E0,3.213355E1,1.2319954E1,1.514246E0,7.318484E0,1.4465288E2,3.299034E0,4.8779035E0,1.1092727E1,1.5919282E1,4.3508587E0,2.3324356E0,1.670636E1,2.1480277E0,2.2690464E1,1.0448511E1,5.704661E0,1.0577129E1,9.412507E0,1.8345788E0,3.1119292E0,4.1563497E0,4.6403046E1,3.235553E0,2.0527048E2,2.5426259E2,2.8761736E1,5.269571E0,1.7764906E0,2.776506E0,3.0905626E0,1.9849805E0,2.4271543E0,5.8500395E0,9.7383175E0,4.749183E0,8.016181E0,1.2696377E0,8.043165E0,2.569085E1,4.253989E0,2.9822285E1],"tree_param":{"num_deleted":"0","num_feature":"13","num_nodes":"117","size_leaf_vector":"1"}},{"base_weights":[3.0216953E-2,2.7648908E-1,-6.0983963E-2,4.7581518E-1,1.4758332E-1,2.074605E-1,-1.4514531E-1,3.9641163E-1,1.0479149E0,1.9381408E-1,-8.636349E-1,2.749673E-1,-2.0451376E-1,-7.512341E-2,-3.543362E-1,6.537301E-1,1.6018043E-1,3.303774E-1,1.0933118E-1,-6.5169746E-1,2.2680838E-1,-2.3977655E-1,-3.7405324E-1,3.246716E-1,-2.6947314E-1,4.0230304E-1,-4.597721E-1,7.98328E-2,-2.2847632E-1,-4.5891076E-2,-4.772179E-1,7.465971E-1,3.5790643E-1,7.6320773E-1,-1.4059174E-1,1.1152365E-1,-1.0063766E0,1.8601817E-1,7.3479974E-1,-2.868003E-1,2.8294617E-1,6.4675444E-1,2.235544E-1,2.4860366E-1,-4.382631E-1,7.308979E-1,9.563175E-3,2.1168481E-1,-7.0902497E-1,2.9371366E-1,-7.0300184E-2,4.0956515E-1,-2.6936254E-1,6.7757607E-1,-1.999627E-1,-2.590043E-1,-7.0900464E-1,2.4379691E-1,-2.165924E-2,1.6553056E-1,-2.0859838E-1,6.865474E-2,2.636046E-1,-2.0260672E-1,1.6464602E-2,-1.5568101E-1,-3.8502917E-1,2.0892037E-1,4.301995E-2,2.4463394E-1,-2.443624E-2,-2.6777204E-2,1.7547464E-1,2.3841055E-1,4.1396946E-2,1.2835412E-1,2.1706598E-2,2.2441536E-2,-2.1687129E-1,2.6695812E-1,6.599631E-2,2.3220363E-1,-1.4426568E-1,2.2401941E-1,-3.1946105E-1,3.2001432E-2,-2.7200085E-1,1.6602588E-1,5.26152E-2,4.295742E-4,-2.2309808E-1,1.8665954E-1,-6.9586806E-2,-2.7606258E-1,-7.134495E-2,3.1753623E-1,-1.6273847E-1,1.08931735E-1,-1.4352697E-1,2.097359E-1,-9.628842E-2,-1.7696495E-1,-3.9345294E-1],"categories":[3,4,5,6,7,8,9,10,11,12,13,14,15,16,17,18,19,21,22,23,24,25,26,27,29,30,31,32,33,34,35,36,37,38,39,40,41,43,44,45,46,47,48,49,50,51,52,53,54,55,56,57,58,59,60,61,62,63,64,65,66,67,68,69,70,71,72,73,74,75,76,77,78,79,80,81,82,83,84,85,86,87,88,89,90,91,92,93,94,95,96,97,98,99,100,101,102,0,1,2,4,12,13,14,15,16,17,18,19,20,21,22,23,24,25,26,27,28,29,30,0,1,2,5,31,35,40,54,55,78,99,107,112,143,147,148,152,156,0,1,2,3,4,5,6,7,8,9,10,11,12,13,14,15,16,17,18,19,20,21,22,23,24,25,26,27,28,29,30,31,32,33,34,35,36,37,38,39,40,41,42,43,44,45,46,47,48,49,50,51,52,56,57,58,59,60,61,62,63,64,65,66,67,68,69,70,71,72,73,74,75,76,77,78,79,80,81,82,83,84,85,86,87,88,89,90,91,92,93,94,95,96,97,98,100,101,102,103,104,105,106,107,108,109,110,112,113,114,115,116,117,118,119,120,121,122,123,124,125,126,127,128,129,130,131,132,134,135,136,137,138,139,140,141,142,143,144,145,146,149,150,151,152,153,154,155,156,157,158,159,160,161,162,163,164,165,0,1,2,3,4,5,6,7,8,9,10,11,12,13,14,15,16,17,18,19,20,21,22,23,24,25,26,27,107,133,9,10,11,17,19,21,29,77,92,0,1,15,0,4,0,1,2,3,4,5,0,2,0,8,12,13,14,15,16,17,18,19,20,21,22,23,24,0,1,2,4,5,0,1,2,6,8,11,12,13,14,16,18,19,20,21,22,23,24,25,26,27,28,29,30,31,32,33,34,35,36,37,38,39,40,41,42,43,44,45,46,47,48,49,50,51,52,53,54,55,56,57,58,59,60,61,62,63,64,65,66,67,68,69,70,71,72,73,74,75,76,77,78,79,80,81,82,83,84,85,86,87,88,89,0,1,2,4,6,2,0,3,4,0,1,2,3,4,5,6,7,8,9,10,11,12,13,14,15,16,17,18,19,20,21,22,23,24,25,26,27,28,29,30,31,32,33,34,35,36,37,38,39,40,41,42,43,44,45,46,47,48,49,50,51,52,53,54,56,57,58,59,60,61,62,63,64,65,66,67,68,69,70,71,72,73,74,75,76,77,78,79,80,81,82,83,84,85,86,87,88,89,90,91,92,93,94,95,96,97,98,99,100,101,102,103,104,105,106,107,108,109,110,111,112,113,114,115,116,117,118,119,120,121,122,123,124,125,126,127,128,129,130,131,132,133,134,135,136,137,138,139,140,141,142,143,144,145,146,0,1,2,3,4,5,6,7,8,9,10,11,12,13,14,15,16,17,18,19,20,21,22,23,24,25,26,27,28,29,30,31,32,33,34,35,36,37,38,39,40,41,42,43,44,45,46,47,48,49,50,51,52,56,57,58,59,60,61,62,63,64,65,66,67,68,69,70,71,72,73,74,75,76,77,78,79,80,81,82,83,84,85,86,87,88,90,91,92,93,94,95,96,97,98,100,101,102,103,104,105,106,107,108,109,110,111,112,113,114,115,116,117,118,119,120,121,122,123,124,125,126,127,128,129,130,131,132,133,134,135,136,137,138,139,140,141,142,143,144,145,146,149,150,151,152,153,154,155,156,157,158,159,160,161,162,163,164,165,0,0,1,2,3,4,5,6,7,8,9,10,11,12,13,14,15,16,17,18,19,20,21,22,23,24,25,26,28,29,30,31,32,33,34,35,36,37,38,39,40,41,42,44,45,46,47,48,49,50,51,52,53,54,55,56,57,58,59,60,61,62,63,64,65,66,67,68,69,70,71,72,74,75,76,77,78,79,80,81,82,83,84,85,86,87,88,90,91,92,94,95,96,97,98,99,100,101,102,103,104,105,106,107,108,109,111,112,113,114,116,117,118,119,120,121,122,123,124,125,127,128,129,130,131,132,133,134,135,137,138,139,140,141,142,143,144,145,146,147,148,149,150,151,152,153,154,155,156,157,158,159,160,161,162,163,164,165,0,1,2,4,5,1,2,4,5,6,0,1,2,3,4,5,6,7,8,9,10,11,12,13,14,15,17,18,19,20,21,22,23,24,25,26,27,28,29,30,31,32,33,34,35,36,37,38,39,40,41,42,43,44,45,46,47,48,49,50,51,52,53,54,55,56,57,58,59,60,61,62,63,64,65,66,67,68,69,70,71,72,73,74,75,76,77,78,79,80,81,82,83,84,85,86,87,88,89,90,91,92,93,94,95,96,97,98,99,100,101,102,103,104,105,106,107,108,109,110,111,112,113,114,115,132,0,0,1,2,3,4,6,0,1,4,5,6,3,5,7,9,10,16,24,36,67,1,2,3,4,5,6,7,8,9,10,11,12,13,14,16,17,18,19,20,21,22,23,24,25,26,2,3,1,1,1,0,1,2,3,4,0,0,1,2,3,2,5,0,1,2,8,9,10,11,12,14,16,17,18,19,20,21,22,23,24,25,26,27,28,29,31,32,33,34,35,36,37,38,39,40,41,42,43,44,45,46,47,48,49,50,51,52,53,54,55,56,58,59,60,61,62,63,64,65,66,67,68,69,70,71,72,73,74,75,76,77,78,79,80,81,82,83,84,85,86,87,88,89,90,91,92,93,94,95,96,97,98,99,100,101,102,0,1,2,3,4,5,6,7,8,9,10,11,12,13,14,15,16,17,18,19,20,21,22,23,24,25,26,27,28,29,30,31,32,33,34,35,36,37,38,39,40,41,42,43,44,45,46,47,48,49,50,51,52,53,73,115,132,133,1,2,3,4,5,6,7,8,9,10,11,12,13,14,15,16,17,18,19,20,21,22,23,24,25,26,27,28,29,30,31,32,33,34,35,36,37,38,0,1,2,3,4,5,6,7,8,9,10,11,12,13,14,15,16,17,18,19,20,21,22,23,24,25,26,27,28,29,30,31,32,33,34,35,36,37,38,0,1,3,5,0,1,2,3,4,7,10,12,13,14,15,16,17,18,19,20,21,22,23,24,25,26,27,28,29,30,15,26,31,24,47,6,8,11,12,13,14,16,18,19,21,24,27,30,36,47,57,67,77,0,1,2,3,4,5,6,7,8,9,10,11,12,13,14,15,16,17,18,19,20,21,22,23,24,25,26,27,28,29,30,31,32,33,34,35,99,0,1,2,4,5,6,7,9,11,12,13,14,15,16,17,18,19,20,21,22,23,24,25,26,27,28,29,30,31,32,33,34,35,36,0,1,2,3,4,5,6,7,8,9,10,11,12,13,14,15,16,17,18,19,20,21,22,23,24,25,26,27,28,29,30,31,32,33,34,35,36,37,38,39,40,41,42,43,44,45,46,47,48,49,50,51,52,53,54,55,56,57,58,59,60,61,62,63,64,65,66,67,68,69,70,71,72,73,74,75,76,77,78,79,80,81,82,83,84,85,86,87,88,89,90,91,92,93,94,95,96,97,98,99,100,101,102,103,104,105,106,107,108,109,110,111,147,54,147,148],"categories_nodes":[0,1,2,3,4,5,6,7,8,9,10,11,12,13,14,15,16,19,20,21,23,24,25,26,27,28,29,30,31,32,33,34,36,37,38,40,41,42,44,45,46,47,48,49,50,51,52,53,54,55,56],"categories_segments":[0,97,120,138,296,326,335,338,340,346,347,348,363,368,450,455,456,459,605,764,765,922,927,932,1048,1049,1055,1060,1069,1094,1096,1097,1098,1099,1104,1105,1109,1111,1205,1263,1301,1302,1340,1344,1370,1373,1375,1393,1430,1464,1577],"categories_sizes":[97,23,18,158,30,9,3,2,6,1,1,15,5,82,5,1,3,146,159,1,157,5,5,116,1,6,5,9,25,2,1,1,1,5,1,4,2,94,58,38,1,38,4,26,3,2,18,37,34,113,3],"default_left":[0,1,1,0,1,1,1,1,1,1,1,1,1,0,1,1,1,0,0,0,0,1,0,0,1,1,0,1,1,1,1,1,1,1,1,0,1,1,1,0,1,1,0,0,1,1,1,1,1,1,1,1,1,1,1,0,1,0,0,0,0,0,0,0,0,0,0,0,0,0,0,0,0,0,0,0,0,0,0,0,0,0,0,0,0,0,0,0,0,0,0,0,0,0,0,0,0,0,0,0,0,0,0],"id":5,"left_children":[1,3,5,7,9,11,13,15,17,19,21,23,25,27,29,31,33,-1,-1,35,37,39,-1,41,43,45,47,49,51,53,55,57,59,61,63,-1,65,67,69,-1,71,73,75,-1,77,79,81,83,85,87,89,91,93,95,97,99,101,-1,-1,-1,-1,-1,-1,-1,-1,-1,-1,-1,-1,-1,-1,-1,-1,-1,-1,-1,-1,-1,-1,-1,-1,-1,-1,-1,-1,-1,-1,-1,-1,-1,-1,-1,-1,-1,-1,-1,-1,-1,-1,-1,-1,-1,-1],"loss_changes":[2.6822474E1,8.221619E0,1.9725428E1,5.321455E0,9.396811E0,5.854458E0,9.703595E0,6.734085E0,1.3763809E-1,5.437345E0,1.8082962E0,4.946561E0,4.8204403E0,1.1874837E1,6.281971E0,1.203228E0,1.0986187E1,0E0,0E0,3.0527854E0,3.6600304E0,1.9897465E0,0E0,5.2288876E0,3.2487903E0,1.2053927E0,3.753747E0,8.013607E0,6.659033E0,5.540404E0,5.8266563E0,2.2122498E0,3.38698E0,1.0401802E0,4.3086967E0,0E0,1.1049223E-1,3.6185713E0,9.4063616E-1,0E0,4.373059E-1,2.8179073E0,3.894949E0,0E0,2.1202388E0,2.1857953E-1,2.3566058E0,5.3025317E0,2.665372E0,3.0638304E0,7.104426E0,2.2606192E0,4.6372623E0,4.6361165E0,6.5627193E0,3.9513235E0,3.3207092E0,0E0,0E0,0E0,0E0,0E0,0E0,0E0,0E0,0E0,0E0,0E0,0E0,0E0,0E0,0E0,0E0,0E0,0E0,0E0,0E0,0E0,0E0,0E0,0E0,0E0,0E0,0E0,0E0,0E0,0E0,0E0,0E0,0E0,0E0,0E0,0E0,0E0,0E0,0E0,0E0,0E0,0E0,0E0,0E0,0E0,0E0],"parents":[2147483647,0,0,1,1,2,2,3,3,4,4,5,5,6,6,7,7,8,8,9,9,10,10,11,11,12,12,13,13,14,14,15,15,16,16,19,19,20,20,21,21,23,23,24,24,25,25,26,26,27,27,28,28,29,29,30,30,31,31,32,32,33,33,34,34,36,36,37,37,38,38,40,40,41,41,42,42,44,44,45,45,46,46,47,47,48,48,49,49,50,50,51,51,52,52,53,53,54,54,55,55,56,56],"right_children":[2,4,6,8,10,12,14,16,18,20,22,24,26,28,30,32,34,-1,-1,36,38,40,-1,42,44,46,48,50,52,54,56,58,60,62,64,-1,66,68,70,-1,72,74,76,-1,78,80,82,84,86,88,90,92,94,96,98,100,102,-1,-1,-1,-1,-1,-1,-1,-1,-1,-1,-1,-1,-1,-1,-1,-1,-1,-1,-1,-1,-1,-1,-1,-1,-1,-1,-1,-1,-1,-1,-1,-1,-1,-1,-1,-1,-1,-1,-1,-1,-1,-1,-1,-1,-1,-1],"split_conditions":[NaN,NaN,NaN,NaN,NaN,NaN,NaN,NaN,NaN,NaN,NaN,NaN,NaN,NaN,NaN,NaN,NaN,3.303774E-1,1.0933118E-1,NaN,NaN,NaN,-3.7405324E-1,NaN,NaN,NaN,NaN,NaN,NaN,NaN,NaN,NaN,NaN,NaN,NaN,1.1152365E-1,NaN,NaN,NaN,-2.868003E-1,NaN,NaN,NaN,2.4860366E-1,NaN,NaN,NaN,NaN,NaN,NaN,NaN,NaN,NaN,NaN,NaN,NaN,NaN,2.4379691E-1,-2.165924E-2,1.6553056E-1,-2.0859838E-1,6.865474E-2,2.636046E-1,-2.0260672E-1,1.6464602E-2,-1.5568101E-1,-3.8502917E-1,2.0892037E-1,4.301995E-2,2.4463394E-1,-2.443624E-2,-2.6777204E-2,1.7547464E-1,2.3841055E-1,4.1396946E-2,1.2835412E-1,2.1706598E-2,2.2441536E-2,-2.1687129E-1,2.6695812E-1,6.599631E-2,2.3220363E-1,-1.4426568E-1,2.2401941E-1,-3.1946105E-1,3.2001432E-2,-2.7200085E-1,1.6602588E-1,5.26152E-2,4.295742E-4,-2.2309808E-1,1.8665954E-1,-6.9586806E-2,-2.7606258E-1,-7.134495E-2,3.1753623E-1,-1.6273847E-1,1.08931735E-1,-1.4352697E-1,2.097359E-1,-9.628842E-2,-1.7696495E-1,-3.9345294E-1],"split_indices":[1,12,2,2,2,1,12,5,2,10,6,12,12,1,5,6,4,0,0,2,2,9,0,2,5,4,2,3,4,4,1,11,4,6,6,0,12,4,12,0,5,4,1,0,2,11,11,11,4,12,11,1,1,2,1,2,2,0,0,0,0,0,0,0,0,0,0,0,0,0,0,0,0,0,0,0,0,0,0,0,0,0,0,0,0,0,0,0,0,0,0,0,0,0,0,0,0,0,0,0,0,0,0],"split_type":[1,1,1,1,1,1,1,1,1,1,1,1,1,1,1,1,1,0,0,1,1,1,0,1,1,1,1,1,1,1,1,1,1,1,1,0,1,1,1,0,1,1,1,0,1,1,1,1,1,1,1,1,1,1,1,1,1,0,0,0,0,0,0,0,0,0,0,0,0,0,0,0,0,0,0,0,0,0,0,0,0,0,0,0,0,0,0,0,0,0,0,0,0,0,0,0,0,0,0,0,0,0,0],"sum_hessian":[1.1924694E3,3.2171167E2,8.707577E2,1.25288185E2,1.9642348E2,2.0748622E2,6.632715E2,1.1150497E2,1.378322E1,1.8860901E2,7.8144693E0,1.785597E2,2.8926538E1,4.979523E2,1.6531915E2,5.2524506E1,5.898046E1,1.2218365E1,1.5648556E0,6.3793755E0,1.8222963E2,3.5921743E0,4.222295E0,1.6399184E2,1.4567851E1,8.394506E0,2.0532032E1,2.4791988E2,2.5003244E2,4.7489456E1,1.17829704E2,3.8815487E1,1.3709017E1,1.9116238E1,3.9864223E1,1.6294388E0,4.7499366E0,1.6994937E2,1.2280252E1,1.165855E0,2.4263191E0,3.7894028E1,1.2609781E2,1.4199691E0,1.3147882E1,4.1017013E0,4.2928057E0,5.5991974E0,1.4932834E1,1.0185703E2,1.4606284E2,1.451437E1,2.3551808E2,7.7412796E0,3.9748173E1,6.1782513E1,5.604719E1,3.5924633E1,2.8908527E0,1.1980046E1,1.7289706E0,3.9267898E0,1.5189448E1,1.0013899E1,2.9850323E1,2.7625842E0,1.9873526E0,1.1915299E1,1.5803407E2,1.1176949E1,1.103304E0,1.4022901E0,1.024029E0,2.8921665E1,8.972363E0,5.2854183E1,7.324363E1,4.954517E0,8.193365E0,2.562652E0,1.5390491E0,1.451782E0,2.8410234E0,4.2379665E0,1.3612309E0,3.002311E0,1.1930523E1,3.0731548E1,7.112548E1,1.3290277E2,1.316007E1,1.0923782E1,3.5905871E0,9.585411E0,2.2593266E2,6.000464E0,1.740816E0,1.3052019E1,2.6696156E1,3.127892E0,5.8654617E1,4.8447647E1,7.599548E0],"tree_param":{"num_deleted":"0","num_feature":"13","num_nodes":"103","size_leaf_vector":"1"}},{"base_weights":[2.5650708E-2,1.3358414E-1,-1.0540781E-1,4.6083498E-1,4.9032353E-2,2.8749642E-1,-1.5843935E-1,5.8469325E-1,1.1931906E-1,4.9309516E-1,1.739209E-2,4.3917608E-1,-4.6299154E-1,-1.2777461E-1,-8.422198E-1,8.6192626E-1,4.0332147E-1,2.3361963E-1,-4.6423665E-1,2.697913E-1,1.922608E-1,2.5546503E-1,-4.0171884E-2,4.7771E-1,-1.7460549E-1,2.2469738E-1,-8.069826E-1,1.01698555E-1,-1.9900106E-1,-1.1618086E0,-2.7323678E-1,8.980131E-1,2.9989633E-1,8.3938533E-1,2.009024E-1,-2.4606383E-1,4.4547644E-1,-1.0788727E-2,-6.723886E-1,5.8548486E-1,-2.671564E-1,4.5270985E-1,-2.0647709E-1,9.26134E-2,-1.8518892E-1,5.1884747E-1,-1.5454102E-1,-1.8668993E-1,2.5090516E-1,-3.0131647E-1,-1.0922151E0,3.1374237E-1,-2.0453624E-1,-2.1810196E-1,8.2117385E-1,-6.241508E-1,-4.0965757E-1,3.8020897E-1,-2.3510279E-1,2.9748872E-1,2.0193912E-1,2.0001842E-1,-6.9279894E-2,2.766911E-1,6.305222E-2,1.6561584E-1,-7.595513E-2,1.6898397E-1,-1.6932768E-1,2.4624403E-1,5.163041E-2,-6.957795E-2,-2.3386534E-1,2.5184962E-1,-2.0448941E-1,1.6031979E-1,-1.7868382E-1,1.5370518E-1,-1.07885346E-1,1.0115024E-1,-1.4081998E-1,4.4935483E-2,-2.0533903E-1,-3.827986E-2,-1.9650398E-1,2.1137875E-1,1.164686E-1,6.292174E-2,-2.2809269E-1,-8.743629E-2,-4.3902284E-1,1.4514437E-1,-3.5737913E-2,2.230506E-2,-1.433135E-1,-5.512202E-2,-2.492208E-1,-8.032054E-2,3.3836547E-1,4.370542E-2,-2.689177E-1,2.4585058E-1,-5.7161506E-2],"categories":[0,2,3,5,6,7,8,9,10,11,12,13,14,25,27,78,79,99,107,112,0,3,4,5,6,7,8,9,10,11,12,13,14,16,18,19,20,21,22,23,24,25,26,27,29,30,31,32,33,34,35,36,37,38,39,40,41,42,43,44,45,46,47,48,49,50,51,52,54,55,56,57,58,59,60,61,62,63,64,65,66,67,68,69,70,71,72,73,74,75,76,77,78,79,80,81,82,83,84,85,87,88,89,90,91,92,93,94,95,96,97,98,99,100,101,102,0,2,3,4,5,6,7,8,9,10,11,12,15,16,17,18,19,20,21,22,23,24,25,26,27,28,29,30,31,32,33,34,35,36,37,38,39,40,41,42,43,44,45,46,47,48,49,50,51,52,53,54,55,56,57,58,59,60,61,62,63,64,65,66,67,68,69,70,71,72,73,74,75,76,77,78,79,80,81,82,83,84,85,86,87,88,89,90,91,92,93,94,95,96,97,98,99,100,101,102,0,1,12,13,14,15,16,17,18,19,20,21,22,23,24,25,26,27,28,29,30,0,1,2,3,4,5,6,11,15,16,17,18,19,20,21,22,23,24,25,26,27,28,29,30,2,1,5,9,26,42,4,5,6,0,2,0,1,2,3,4,5,6,7,8,9,10,11,12,13,14,15,16,17,18,19,21,22,23,24,25,27,28,29,31,32,33,34,35,36,37,38,39,40,41,42,44,45,46,47,48,49,50,51,53,54,55,56,57,58,59,60,61,62,63,64,65,66,67,68,69,71,72,74,75,76,77,78,79,80,81,82,83,84,85,86,87,88,90,91,92,95,96,97,99,100,101,102,103,104,105,106,107,108,109,111,112,113,117,118,119,120,121,123,124,125,126,127,128,129,130,131,133,134,135,137,138,139,140,141,142,143,144,145,146,147,149,150,151,152,153,154,155,156,157,158,159,160,161,162,163,164,165,3,1,2,3,0,1,2,3,4,2,2,3,4,5,0,0,0,3,5,4,16,18,30,36,77,92,0,1,2,7,8,9,10,11,12,13,14,15,17,18,19,21,22,23,24,25,26,27,28,31,32,33,36,57,67,92,1,2,3,4,5,6,8,9,10,11,12,0,0,1,2,5,6,7,13,14,15,16,17,18,19,20,21,22,23,25,26,27,28,29,30,31,32,47,0,0,1,2,3,4,5,6,0,1,5,6,7,8,9,10,11,12,13,14,15,16,17,18,19,20,21,22,23,24,25,26,27,28,29,30,55,2,6,2,0,1,2,3,4,6,2,4,5,2,0,1,2,5,24,0,1,2,3,4,5,6,7,9,10,11,12,0,0,1,2,3,4,5,6,7,8,9,10,11,12,13,14,15,16,17,18,19,20,21,22,23,24,25,26,27,28,29,30,31,32,33,34,35,36,37,38,39,40,41,42,43,44,45,46,47,48,49,50,51,52,70,73,89,98,122,148,1,15,38,46,5,7,9,26,31,42,54,0,1,2,3,0,1,2,0,1,7,8,9,10,11,12,13,14,15,1,2,3,4,0,0,1,2,4,5,6,7,8,9,10,0,1,2,3,4,5,6,7,8,9,10,11,12,13,14,15,16,17],"categories_nodes":[0,1,2,3,4,5,6,7,8,9,10,11,12,13,14,15,16,17,18,20,21,22,23,25,26,27,28,29,30,31,32,33,34,35,36,38,39,40,41,42,43,44,45,49,50,51,52,53,54,55,57],"categories_segments":[0,20,116,216,237,261,262,267,270,271,272,419,420,423,428,429,433,434,435,436,438,445,475,486,487,488,513,514,515,521,549,550,552,553,559,562,563,568,580,581,640,644,651,652,655,658,669,671,673,674,684],"categories_sizes":[20,96,100,21,24,1,5,3,1,1,147,1,3,5,1,4,1,1,1,2,7,30,11,1,1,25,1,1,6,28,1,2,1,6,3,1,5,12,1,59,4,7,1,3,3,11,2,2,1,10,18],"default_left":[1,0,0,1,1,1,1,1,1,1,0,1,1,1,1,1,1,1,1,0,1,1,1,1,0,1,1,1,1,1,1,1,1,1,1,1,1,0,1,1,1,1,1,1,1,1,0,0,0,1,1,1,1,1,1,1,0,1,0,0,0,0,0,0,0,0,0,0,0,0,0,0,0,0,0,0,0,0,0,0,0,0,0,0,0,0,0,0,0,0,0,0,0,0,0,0,0,0,0,0,0,0,0],"id":6,"left_children":[1,3,5,7,9,11,13,15,17,19,21,23,25,27,29,31,33,35,37,-1,39,41,43,45,-1,47,49,51,53,55,57,59,61,63,65,67,69,-1,71,73,75,77,79,81,83,85,-1,-1,-1,87,89,91,93,95,97,99,-1,101,-1,-1,-1,-1,-1,-1,-1,-1,-1,-1,-1,-1,-1,-1,-1,-1,-1,-1,-1,-1,-1,-1,-1,-1,-1,-1,-1,-1,-1,-1,-1,-1,-1,-1,-1,-1,-1,-1,-1,-1,-1,-1,-1,-1,-1],"loss_changes":[1.6470755E1,1.7642115E1,1.1004687E1,5.4698277E0,7.135334E0,7.3639183E0,9.62276E0,4.471901E0,2.5171096E0,3.9553194E0,6.529071E0,2.3573694E0,2.7983067E0,7.298798E0,3.2719135E0,4.8168182E-1,5.111704E0,3.2459404E0,5.329274E-1,0E0,3.8923938E0,8.544888E0,7.409906E0,2.3694324E0,0E0,2.8366501E0,7.6589346E-1,6.956679E0,6.8078566E0,4.984398E-1,3.1020558E0,5.4447174E-2,8.813522E-1,7.792244E-1,6.864066E0,2.9200542E0,2.0917983E0,0E0,1.5034914E-2,4.2595854E0,3.0100524E0,3.348546E0,4.2235613E0,9.035711E0,4.890558E0,9.3761253E-1,0E0,0E0,0E0,1.1256499E0,9.030113E-1,4.7038784E0,3.3901153E0,6.8935127E0,2.4601464E0,1.2268107E0,0E0,1.2493908E0,0E0,0E0,0E0,0E0,0E0,0E0,0E0,0E0,0E0,0E0,0E0,0E0,0E0,0E0,0E0,0E0,0E0,0E0,0E0,0E0,0E0,0E0,0E0,0E0,0E0,0E0,0E0,0E0,0E0,0E0,0E0,0E0,0E0,0E0,0E0,0E0,0E0,0E0,0E0,0E0,0E0,0E0,0E0,0E0,0E0],"parents":[2147483647,0,0,1,1,2,2,3,3,4,4,5,5,6,6,7,7,8,8,9,9,10,10,11,11,12,12,13,13,14,14,15,15,16,16,17,17,18,18,20,20,21,21,22,22,23,23,25,25,26,26,27,27,28,28,29,29,30,30,31,31,32,32,33,33,34,34,35,35,36,36,38,38,39,39,40,40,41,41,42,42,43,43,44,44,45,45,49,49,50,50,51,51,52,52,53,53,54,54,55,55,57,57],"right_children":[2,4,6,8,10,12,14,16,18,20,22,24,26,28,30,32,34,36,38,-1,40,42,44,46,-1,48,50,52,54,56,58,60,62,64,66,68,70,-1,72,74,76,78,80,82,84,86,-1,-1,-1,88,90,92,94,96,98,100,-1,102,-1,-1,-1,-1,-1,-1,-1,-1,-1,-1,-1,-1,-1,-1,-1,-1,-1,-1,-1,-1,-1,-1,-1,-1,-1,-1,-1,-1,-1,-1,-1,-1,-1,-1,-1,-1,-1,-1,-1,-1,-1,-1,-1,-1,-1],"split_conditions":[NaN,NaN,NaN,NaN,NaN,NaN,NaN,NaN,NaN,NaN,NaN,NaN,NaN,NaN,NaN,NaN,NaN,NaN,NaN,2.697913E-1,NaN,NaN,NaN,NaN,-1.7460549E-1,NaN,NaN,NaN,NaN,NaN,NaN,NaN,NaN,NaN,NaN,NaN,NaN,-1.0788727E-2,NaN,NaN,NaN,NaN,NaN,NaN,NaN,NaN,-1.5454102E-1,-1.8668993E-1,2.5090516E-1,NaN,NaN,NaN,NaN,NaN,NaN,NaN,-4.0965757E-1,NaN,-2.3510279E-1,2.9748872E-1,2.0193912E-1,2.0001842E-1,-6.9279894E-2,2.766911E-1,6.305222E-2,1.6561584E-1,-7.595513E-2,1.6898397E-1,-1.6932768E-1,2.4624403E-1,5.163041E-2,-6.957795E-2,-2.3386534E-1,2.5184962E-1,-2.0448941E-1,1.6031979E-1,-1.7868382E-1,1.5370518E-1,-1.07885346E-1,1.0115024E-1,-1.4081998E-1,4.4935483E-2,-2.0533903E-1,-3.827986E-2,-1.9650398E-1,2.1137875E-1,1.164686E-1,6.292174E-2,-2.2809269E-1,-8.743629E-2,-4.3902284E-1,1.4514437E-1,-3.5737913E-2,2.230506E-2,-1.433135E-1,-5.512202E-2,-2.492208E-1,-8.032054E-2,3.3836547E-1,4.370542E-2,-2.689177E-1,2.4585058E-1,-5.7161506E-2],"split_indices":[2,1,1,12,12,6,11,5,12,8,2,4,12,5,9,4,8,8,0,0,5,1,1,11,0,8,3,1,7,3,4,12,2,4,6,5,5,0,1,1,12,12,2,11,11,3,0,0,0,4,5,12,12,4,3,12,0,1,0,0,0,0,0,0,0,0,0,0,0,0,0,0,0,0,0,0,0,0,0,0,0,0,0,0,0,0,0,0,0,0,0,0,0,0,0,0,0,0,0,0,0,0,0],"split_type":[1,1,1,1,1,1,1,1,1,1,1,1,1,1,1,1,1,1,1,0,1,1,1,1,0,1,1,1,1,1,1,1,1,1,1,1,1,0,1,1,1,1,1,1,1,1,0,0,0,1,1,1,1,1,1,1,0,1,0,0,0,0,0,0,0,0,0,0,0,0,0,0,0,0,0,0,0,0,0,0,0,0,0,0,0,0,0,0,0,0,0,0,0,0,0,0,0,0,0,0,0,0,0],"sum_hessian":[1.1623779E3,6.374148E2,5.2496313E2,1.2996098E2,5.0745383E2,6.190386E1,4.630593E2,9.4849625E1,3.5111362E1,3.278204E1,4.7467178E2,5.1841156E1,1.0062703E1,4.4432022E2,1.8739069E1,3.6027737E1,5.882189E1,2.9861984E1,5.2493796E0,1.3101732E1,1.9680307E1,9.175475E1,3.8291702E2,5.0468956E1,1.3722003E0,3.470818E0,6.5918846E0,1.0514439E2,3.3917584E2,1.1332103E1,7.4069657E0,3.32923E1,2.7354357E0,1.7650755E1,4.1171135E1,9.098904E0,2.076308E1,2.1004527E0,3.148927E0,1.045622E1,9.224089E0,6.43135E1,2.7441254E1,2.0007715E2,1.8283989E2,4.891945E1,1.5495065E0,1.4481126E0,2.0227056E0,3.118944E0,3.4729407E0,6.211208E1,4.3032307E1,3.3371387E2,5.46197E0,4.230527E0,7.101576E0,3.3603282E0,4.0466375E0,2.109936E1,1.2192942E1,1.4662002E0,1.2692354E0,1.518398E1,2.466776E0,2.3095419E1,1.8075716E1,2.3515227E0,6.7473807E0,7.905927E0,1.2857153E1,1.2354006E0,1.9135263E0,8.991252E0,1.4649677E0,2.4988825E0,6.725206E0,6.025862E1,4.05488E0,8.853182E0,1.8588072E1,1.8711766E2,1.2959481E1,1.6400797E2,1.8831917E1,1.8383146E1,3.0536304E1,1.7327235E0,1.3862205E0,1.6654091E0,1.8075317E0,4.4507565E1,1.7604517E1,2.1653719E1,2.1378588E1,3.1722125E2,1.6492638E1,1.2282872E0,4.233682E0,1.2266673E0,3.0038598E0,1.6525518E0,1.7077764E0],"tree_param":{"num_deleted":"0","num_feature":"13","num_nodes":"103","size_leaf_vector":"1"}},{"base_weights":[2.12282E-2,-9.973772E-2,1.1122585E-1,5.1901355E-2,-2.2002062E-1,6.4555997E-1,7.665793E-2,1.9621618E-1,-2.0805047E-1,-1.2498413E-1,-5.7882357E-1,7.016792E-1,-1.0832381E-1,1.3372234E-1,-1.6290036E-1,2.5351948E-1,-2.786134E-1,1.9114343E-2,-4.3778047E-1,1.6009358E-1,-2.2459887E-1,-7.523256E-1,-2.625351E-1,2.599733E-1,4.9192357E-1,1.342363E-1,-2.1256503E-1,2.0383756E-1,-1.0266315E-1,8.164748E-2,-3.3052772E-1,2.801726E-1,-3.7536988E-1,2.9125756E-1,-7.574373E-1,3.0459237E-1,-7.4310833E-1,2.9575485E-1,-7.269583E-1,3.6240637E-1,-1.24954015E-1,-6.4876065E-2,-4.5626932E-1,-3.5595453E-1,-1.0498763E0,4.130558E-1,-6.2104154E-1,2.824988E-1,2.9653114E-1,6.925122E-1,1.725659E-1,3.0365962E-1,-2.576041E-1,1.6241941E-1,-4.543266E-1,-6.076225E-2,-6.048199E-1,1.9135186E-1,6.864378E-2,1.372666E-1,-3.6607334E-1,2.254379E-1,-7.121281E-2,7.825881E-2,-3.0918708E-1,1.4704634E-1,-3.1170482E-2,-4.4163875E-2,-3.8461533E-1,2.0956452E-1,-2.9700618E-2,-4.80437E-2,-2.7378112E-1,1.5770969E-1,-1.9473504E-2,1.4249195E-1,-1.2732056E-1,6.912361E-2,-8.800933E-2,-1.12697646E-1,-2.861108E-1,4.736745E-2,-1.5255177E-1,5.832983E-2,-3.6629015E-1,1.9108044E-1,-5.0802257E-2,2.1855857E-2,-2.6067692E-1,1.884114E-1,-5.276596E-2,2.3319057E-1,-6.791786E-3,7.974422E-2,-1.0413949E-2,1.3879585E-1,-1.3004006E-1,1.2875165E-1,-1.0901529E-1,8.185221E-2,-1.5698132E-1,1.7930509E-1,-3.0040824E-1,1.02313876E-1,-9.0687625E-2,-3.431316E-2,-2.1174066E-1],"categories":[0,5,21,27,35,40,49,54,89,94,98,99,107,122,133,0,1,2,3,4,5,6,8,17,18,19,20,21,22,23,24,25,26,27,28,29,30,0,3,5,7,14,16,19,24,30,57,77,86,92,4,5,16,27,36,47,67,77,92,6,12,6,8,9,10,11,13,14,15,16,17,18,19,20,21,22,24,29,36,47,1,2,3,4,5,6,7,8,10,11,12,13,14,16,17,18,19,20,21,22,23,24,26,42,0,4,0,1,2,3,6,7,11,12,13,14,15,16,17,18,19,20,21,22,23,24,1,0,3,4,6,7,8,9,10,11,12,13,14,15,16,17,18,19,20,21,22,23,24,25,26,27,28,29,30,31,32,33,34,35,36,37,38,39,40,41,42,43,44,45,46,47,48,49,50,51,52,53,54,55,56,57,58,59,60,61,62,63,64,65,66,67,68,69,70,71,72,73,74,75,76,77,78,79,80,81,82,83,84,85,86,87,88,89,90,91,92,93,94,95,96,97,98,99,100,101,102,0,1,2,2,55,70,99,107,115,143,147,148,1,0,1,2,3,5,6,7,8,9,10,11,13,14,15,16,17,18,19,20,21,22,23,24,25,26,27,28,29,30,31,32,33,34,35,36,0,4,5,0,1,2,3,4,5,6,7,8,9,10,11,12,13,14,15,17,18,19,20,21,22,23,24,25,26,27,28,29,30,31,32,33,53,55,70,111,126,132,0,3,4,5,10,11,12,13,14,15,16,17,19,20,21,22,23,25,26,27,28,29,30,31,32,33,34,35,36,37,38,39,40,41,42,43,44,45,46,47,48,49,50,51,52,53,54,55,56,58,59,60,61,62,63,64,65,66,67,68,69,70,71,72,73,74,75,76,77,78,79,80,81,82,83,84,85,86,87,88,89,90,91,92,93,94,95,96,97,98,99,100,101,102,1,3,6,1,2,6,0,2,4,6,0,1,2,3,4,5,6,7,8,9,10,11,12,13,14,15,16,17,18,19,20,21,22,23,24,25,26,27,28,29,30,31,32,33,34,35,36,37,38,39,40,41,42,43,44,45,46,47,48,49,50,51,52,53,56,57,58,59,60,61,62,63,64,65,66,67,68,69,70,71,72,73,74,75,76,77,78,79,80,81,82,83,84,85,86,87,88,89,90,91,92,93,94,95,96,97,98,100,101,102,103,104,105,106,107,108,109,110,111,112,113,114,115,116,117,118,119,120,121,122,123,124,125,126,127,128,129,130,131,132,133,134,135,136,137,138,139,140,141,142,143,144,145,146,147,148,149,150,151,152,153,154,155,156,157,158,159,160,161,162,163,164,165,0,1,2,3,4,5,6,7,8,9,10,11,12,13,14,15,16,17,18,19,20,22,23,24,25,26,27,28,29,30,31,32,33,34,35,36,37,38,39,40,41,42,43,44,45,46,47,48,49,50,51,52,54,55,56,57,58,59,60,61,62,63,64,65,66,67,68,69,71,72,74,75,76,77,78,79,80,81,82,83,84,85,86,87,88,90,91,92,93,94,95,96,97,98,99,100,101,102,103,104,105,106,108,109,110,111,112,113,114,115,116,117,118,119,120,121,123,124,125,126,127,128,129,130,131,132,134,135,136,137,138,139,140,141,142,143,144,145,146,147,148,149,150,151,152,153,154,155,156,157,158,159,160,161,162,163,164,165,0,1,2,3,4,5,6,7,8,9,10,11,12,13,14,15,16,17,18,19,20,21,22,23,24,25,55,99,132,156,4,0,2,6,0,1,3,4,6,0,1,2,3,4,5,6,7,8,9,10,11,12,0,5,2,0,1,2,3,4,5,6,7,8,9,10,11,12,13,14,15,16,17,18,19,20,21,22,23,24,25,26,27,28,29,30,31,32,33,34,35,36,37,38,39,40,41,42,43,44,45,46,47,48,49,50,51,52,53,54,56,57,58,59,60,61,62,63,64,65,66,67,68,69,70,71,72,73,74,75,76,77,78,79,80,81,82,83,84,85,86,87,88,89,90,91,92,93,94,95,96,97,98,99,100,101,102,115,1,0,2,3,6,7,8,9,10,11,12,13,14,15,16,17,18,19,20,21,22,23,24,25,26,27,28,29,30,2,3,4,5,6,2,3,5,2,0,1,2,4,5,7,8,11,12,13,16,18,19,20,21,22,23,25,26,27,28,29,31,32,33,34,35,36,37,38,39,40,41,42,43,44,45,46,47,48,49,50,51,52,53,54,55,56,58,59,60,61,62,63,64,65,66,67,68,69,70,71,72,73,74,75,76,77,78,79,80,81,82,83,84,85,86,87,88,89,90,91,92,93,94,95,96,97,98,8,9,57,0,2,3,4,5,6,7,8,9,10,11,12,13,14,15,16,17,18,19,20,21,22,23,24,25,26,27,28,29,30,0,1,2,3,4,6,7,8,9,10,11,12,13,14,15,16,17,18,19,20,21,22,23,24,25,26,0,1,2,3,4,6,7,8,9,10,11,12,13,14,15,16,17,18,19,20,21,22,23,24,25,26,27,0,1,2,3,5,6,7,8,9,10,11,12,13,14,15,16,17,18,19,20,21,22,23,24,25,26,27,28,29,30,31,32,33,34,35,36,37,38,39,40,41,42,43,44,45,46,47,48,49,50,51,52,53,54,55,56,57,58,59,60,61,62,63,64,65,66,67,68,69,70,71,72,73,74,75,76,77,78,79,80,81,82,83,84,85,86,87,88,89,90,91,92,93,94,95,96,97,98,99,100,101,102,7,15,2,0,1,4,0,2,4,5,6,26,38,54,1,2,4,5,0,1,2,3,4,5,6,7,8,9,10,11,12,13,14,15,16,17,18,19,20,21,22,23,24,25,26,27,28,29,30,31,32,33,34,35,36,37,38,39,40,41,42,43,44,45,46,47,48,49,50,51,52,53,54,56,57,58,59,60,61,62,63,64,65,66,67,68,69,70,71,72,73,74,75,76,77,78,79,80,81,82,83,84,85,86,87,88,89,90,91,92,93,94,95,96,97,98,99,100,101,102,103,104,105,106,107,108,109,110,111,112,113,114,115,116,117,118,119,120,121,122,123,124,125,126,127,128,129,130,131,132,133,134,135,136,137,138,139,140,141,142,143,144,145,146,147,149,150,151,152,153,154,155,156,157,158,159,160,161,162,163,164,165,1,2,3,4,6],"categories_nodes":[0,1,2,3,4,5,6,7,8,9,10,11,12,13,14,15,16,17,18,19,20,21,22,24,27,28,29,30,31,32,33,34,35,36,37,38,39,40,41,42,43,44,45,46,47,49,50,51,52,53,54,55,56],"categories_segments":[0,1,15,37,50,59,61,80,104,106,126,127,227,230,231,239,240,275,278,317,411,414,417,421,584,742,772,773,776,781,794,796,797,900,901,929,934,937,938,1027,1030,1060,1086,1113,1215,1217,1218,1220,1221,1226,1229,1233,1397],"categories_sizes":[1,14,22,13,9,2,19,24,2,20,1,100,3,1,8,1,35,3,39,94,3,3,4,163,158,30,1,3,5,13,2,1,103,1,28,5,3,1,89,3,30,26,27,102,2,1,2,1,5,3,4,164,5],"default_left":[1,1,1,1,1,1,1,1,1,1,1,0,1,1,1,1,1,1,1,0,1,1,1,0,0,0,0,0,1,1,1,1,1,1,1,0,1,1,1,1,1,0,1,1,1,1,0,1,0,1,1,1,1,1,1,0,1,0,0,0,0,0,0,0,0,0,0,0,0,0,0,0,0,0,0,0,0,0,0,0,0,0,0,0,0,0,0,0,0,0,0,0,0,0,0,0,0,0,0,0,0,0,0,0,0,0,0],"id":7,"left_children":[1,3,5,7,9,11,13,15,17,19,21,23,25,27,29,31,33,35,37,39,41,43,45,-1,47,-1,-1,49,51,53,55,57,59,61,63,65,67,69,71,73,75,77,79,81,83,85,87,89,-1,91,93,95,97,99,101,103,105,-1,-1,-1,-1,-1,-1,-1,-1,-1,-1,-1,-1,-1,-1,-1,-1,-1,-1,-1,-1,-1,-1,-1,-1,-1,-1,-1,-1,-1,-1,-1,-1,-1,-1,-1,-1,-1,-1,-1,-1,-1,-1,-1,-1,-1,-1,-1,-1,-1,-1],"loss_changes":[1.2433482E1,8.899741E0,1.2044414E1,8.157819E0,9.200712E0,1.7534943E0,8.444122E0,3.8702288E0,4.064516E0,6.1776166E0,2.9123936E0,8.5474586E-1,1.522423E0,8.277031E0,4.904231E0,2.2025652E0,4.453896E0,8.9386E0,8.421082E0,3.3085594E0,5.9162283E0,3.8792114E0,5.4907694E0,0E0,1.6563058E0,0E0,0E0,5.7564783E0,7.294075E0,2.2032616E0,5.201239E0,2.0697126E0,4.4392614E0,2.0773683E0,2.6913524E0,2.3126745E0,3.408311E0,1.9214753E0,2.803997E0,2.3614082E0,4.5551023E0,6.5633974E0,2.2644749E0,1.4109452E0,4.5132046E0,1.1630437E0,2.5604792E0,2.4058847E0,0E0,1.3997793E0,7.0199785E0,3.9625943E0,6.223269E0,3.4351208E0,4.4573355E0,3.674546E0,1.6520996E0,0E0,0E0,0E0,0E0,0E0,0E0,0E0,0E0,0E0,0E0,0E0,0E0,0E0,0E0,0E0,0E0,0E0,0E0,0E0,0E0,0E0,0E0,0E0,0E0,0E0,0E0,0E0,0E0,0E0,0E0,0E0,0E0,0E0,0E0,0E0,0E0,0E0,0E0,0E0,0E0,0E0,0E0,0E0,0E0,0E0,0E0,0E0,0E0,0E0,0E0],"parents":[2147483647,0,0,1,1,2,2,3,3,4,4,5,5,6,6,7,7,8,8,9,9,10,10,11,11,12,12,13,13,14,14,15,15,16,16,17,17,18,18,19,19,20,20,21,21,22,22,24,24,27,27,28,28,29,29,30,30,31,31,32,32,33,33,34,34,35,35,36,36,37,37,38,38,39,39,40,40,41,41,42,42,43,43,44,44,45,45,46,46,47,47,49,49,50,50,51,51,52,52,53,53,54,54,55,55,56,56],"right_children":[2,4,6,8,10,12,14,16,18,20,22,24,26,28,30,32,34,36,38,40,42,44,46,-1,48,-1,-1,50,52,54,56,58,60,62,64,66,68,70,72,74,76,78,80,82,84,86,88,90,-1,92,94,96,98,100,102,104,106,-1,-1,-1,-1,-1,-1,-1,-1,-1,-1,-1,-1,-1,-1,-1,-1,-1,-1,-1,-1,-1,-1,-1,-1,-1,-1,-1,-1,-1,-1,-1,-1,-1,-1,-1,-1,-1,-1,-1,-1,-1,-1,-1,-1,-1,-1,-1,-1,-1,-1],"split_conditions":[NaN,NaN,NaN,NaN,NaN,NaN,NaN,NaN,NaN,NaN,NaN,NaN,NaN,NaN,NaN,NaN,NaN,NaN,NaN,NaN,NaN,NaN,NaN,2.599733E-1,NaN,1.342363E-1,-2.1256503E-1,NaN,NaN,NaN,NaN,NaN,NaN,NaN,NaN,NaN,NaN,NaN,NaN,NaN,NaN,NaN,NaN,NaN,NaN,NaN,NaN,NaN,2.9653114E-1,NaN,NaN,NaN,NaN,NaN,NaN,NaN,NaN,1.9135186E-1,6.864378E-2,1.372666E-1,-3.6607334E-1,2.254379E-1,-7.121281E-2,7.825881E-2,-3.0918708E-1,1.4704634E-1,-3.1170482E-2,-4.4163875E-2,-3.8461533E-1,2.0956452E-1,-2.9700618E-2,-4.80437E-2,-2.7378112E-1,1.5770969E-1,-1.9473504E-2,1.4249195E-1,-1.2732056E-1,6.912361E-2,-8.800933E-2,-1.12697646E-1,-2.861108E-1,4.736745E-2,-1.5255177E-1,5.832983E-2,-3.6629015E-1,1.9108044E-1,-5.0802257E-2,2.1855857E-2,-2.6067692E-1,1.884114E-1,-5.276596E-2,2.3319057E-1,-6.791786E-3,7.974422E-2,-1.0413949E-2,1.3879585E-1,-1.3004006E-1,1.2875165E-1,-1.0901529E-1,8.185221E-2,-1.5698132E-1,1.7930509E-1,-3.0040824E-1,1.02313876E-1,-9.0687625E-2,-3.431316E-2,-2.1174066E-1],"split_indices":[9,2,12,1,1,1,1,11,4,12,7,1,5,6,2,10,1,12,2,1,4,4,5,0,2,0,0,2,2,12,4,4,1,5,8,2,7,12,5,5,8,1,1,12,12,1,1,12,0,1,12,1,5,11,5,2,12,0,0,0,0,0,0,0,0,0,0,0,0,0,0,0,0,0,0,0,0,0,0,0,0,0,0,0,0,0,0,0,0,0,0,0,0,0,0,0,0,0,0,0,0,0,0,0,0,0,0],"split_type":[1,1,1,1,1,1,1,1,1,1,1,1,1,1,1,1,1,1,1,1,1,1,1,0,1,0,0,1,1,1,1,1,1,1,1,1,1,1,1,1,1,1,1,1,1,1,1,1,0,1,1,1,1,1,1,1,1,0,0,0,0,0,0,0,0,0,0,0,0,0,0,0,0,0,0,0,0,0,0,0,0,0,0,0,0,0,0,0,0,0,0,0,0,0,0,0,0,0,0,0,0,0,0,0,0,0,0],"sum_hessian":[1.1400664E3,4.8630936E2,6.53757E2,2.1536723E2,2.7094214E2,3.8649944E1,6.1510706E2,1.3864325E2,7.672398E1,2.1527133E2,5.5670795E1,3.6036617E1,2.6133268E0,4.971293E2,1.1797776E2,1.2412919E2,1.4514055E1,3.903834E1,3.7685642E1,5.558653E1,1.596848E2,3.5059875E1,2.061092E1,1.8422495E1,1.7614122E1,1.4890594E0,1.1242673E0,3.8351202E2,1.136173E2,4.818893E1,6.978883E1,1.1961429E2,4.514902E0,6.805834E0,7.7082214E0,2.883795E1,1.0200393E1,1.0649392E1,2.703625E1,3.235275E1,2.323378E1,9.5277054E1,6.4407745E1,1.5975282E1,1.9084593E1,7.092754E0,1.3518166E1,1.3492201E1,4.1219206E0,2.1794193E1,3.617178E2,3.1099915E1,8.251739E1,4.248357E1,5.7053604E0,3.5800587E1,3.3988243E1,1.3585686E1,1.060286E2,2.504378E0,2.010524E0,3.4130714E0,3.3927627E0,1.6400512E0,6.06817E0,1.969253E1,9.145419E0,5.448868E0,4.7515244E0,4.8901353E0,5.7592564E0,7.129897E0,1.9906351E1,2.3241253E1,9.111495E0,7.5405474E0,1.56932335E1,4.1559284E1,5.3717773E1,5.6936253E1,7.471491E0,3.6490393E0,1.2326242E1,2.2904181E0,1.6794174E1,5.0556636E0,2.0370905E0,3.7439172E0,9.774248E0,7.4820137E0,6.0101876E0,1.9406427E1,2.3877647E0,2.4928856E2,1.1242927E2,2.5888332E1,5.2115827E0,1.0605321E1,7.191207E1,3.710965E1,5.3739204E0,1.9201331E0,3.7852273E0,1.3286001E1,2.2514587E1,6.167424E0,2.782082E1],"tree_param":{"num_deleted":"0","num_feature":"13","num_nodes":"107","size_leaf_vector":"1"}},{"base_weights":[1.674541E-2,3.3544973E-2,-4.6128488E-1,2.4570072E-1,-1.3388355E-3,5.733731E-1,-5.898811E-1,6.4704144E-1,8.882284E-2,1.2306153E-1,-6.95525E-2,2.7927786E-1,-5.646804E-2,-8.6658996E-1,-3.386997E-1,7.876977E-1,-1.7508245E-1,1.6305774E-1,-2.2645587E-1,6.833681E-1,1.0008684E-1,-2.7277183E-2,-3.3811513E-1,-5.682111E-2,-9.9654835E-1,4.4974962E-1,-5.093168E-1,2.8621203E-1,4.6721265E-1,5.425701E-1,-7.1319515E-1,2.2795685E-1,-4.2029643E-1,4.7353908E-1,-5.036328E-1,2.8762075E-1,-1.7137733E-1,2.3688659E-1,7.463215E-3,2.3979227E-1,-8.236808E-2,-3.880132E-1,7.860554E-1,1.5251996E-1,-1.6884208E-1,-1.1565357E0,-3.5434213E-1,2.4847156E-1,-9.287862E-2,-2.7147025E-1,-7.528994E-2,2.6530963E-1,-1.4863884E-1,1.9801806E-1,4.620678E-2,7.488634E-2,-3.2942888E-1,1.1424779E-1,-3.4123767E-2,1.18091784E-1,-2.872798E-1,2.1390228E-1,-8.4264055E-2,-2.1439098E-1,4.8652127E-2,1.206437E-1,-2.2796245E-1,1.6305423E-1,3.878552E-2,1.1632787E-1,-2.0808313E-2,1.640872E-1,1.3278233E-2,-1.115647E-2,-1.3924192E-1,-3.390071E-2,-2.0326026E-1,8.313063E-2,2.8436974E-1,-3.7312916E-1,-1.028086E-1,7.753316E-2,-2.1339478E-1,3.134767E-2,-1.4107981E-1],"categories":[0,14,15,0,1,2,3,5,6,7,8,9,10,11,12,13,14,15,16,17,18,19,21,22,23,24,25,27,28,29,32,33,34,35,36,37,38,39,40,41,42,44,45,46,47,50,51,54,55,56,57,58,59,60,61,62,63,64,65,66,67,68,69,71,72,74,75,76,77,78,79,80,81,82,84,85,86,87,88,90,91,92,95,96,97,99,100,101,102,103,104,105,107,108,109,112,113,115,117,118,119,120,121,122,124,125,127,128,129,130,131,133,134,137,138,139,140,141,142,143,144,145,146,149,150,151,152,153,154,155,156,157,158,159,160,161,162,163,164,165,0,1,2,3,4,5,6,7,8,9,10,11,12,13,14,15,16,17,18,19,20,21,22,23,24,25,26,27,28,29,30,31,32,33,34,35,36,37,38,39,40,41,42,43,44,45,46,47,48,49,50,51,52,53,55,56,57,58,59,60,61,62,63,64,65,66,67,68,69,70,71,72,73,74,75,76,77,78,79,80,81,82,83,84,85,86,87,88,89,90,91,92,93,94,95,96,97,98,99,100,101,102,103,104,105,106,107,108,109,110,111,112,113,114,116,117,118,119,120,121,122,123,124,125,126,127,128,129,130,131,132,133,134,135,136,137,138,139,140,141,142,143,144,145,146,147,148,4,5,6,7,10,11,12,14,15,16,17,18,19,20,21,22,23,24,25,26,27,28,29,30,31,32,33,34,35,36,37,38,39,40,41,42,43,44,45,46,47,48,49,50,51,52,53,54,55,56,58,59,60,61,62,63,64,65,66,67,68,69,70,71,72,73,74,75,76,77,78,79,80,81,82,83,84,85,86,87,88,89,90,91,92,93,94,95,96,97,98,99,100,101,102,3,4,5,6,8,9,11,12,13,17,18,19,21,22,23,24,25,26,28,29,30,31,32,33,34,35,36,37,38,39,40,41,43,44,45,46,48,49,50,51,52,53,54,55,56,57,58,59,60,61,62,63,64,65,66,67,68,69,70,71,72,73,74,75,76,77,78,79,80,81,82,83,84,85,86,87,88,89,90,91,92,93,94,0,1,2,3,0,111,126,0,1,2,3,8,9,11,13,15,16,17,19,20,21,47,77,92,0,1,2,3,4,5,6,7,8,9,10,11,12,13,14,15,16,17,18,19,20,22,23,24,25,26,27,28,29,30,31,32,33,34,36,37,38,39,40,41,42,43,44,45,46,47,48,49,50,51,52,53,54,55,56,57,58,59,60,61,62,63,64,65,66,67,68,69,70,71,72,73,74,75,76,77,78,79,80,81,82,83,84,85,86,87,88,89,90,91,92,93,94,95,96,97,98,99,100,101,102,103,104,105,106,108,109,110,111,112,113,114,115,116,117,118,119,120,121,123,124,125,126,127,128,129,130,131,132,134,135,136,137,138,139,140,141,142,144,145,146,147,148,149,150,151,152,153,154,155,156,157,158,159,160,161,162,163,164,165,1,0,2,4,5,0,1,0,1,2,4,1,2,3,4,5,6,7,8,9,38,42,54,0,1,2,3,4,5,6,7,8,9,10,11,12,13,14,15,16,17,18,19,20,21,22,23,24,25,26,27,28,29,30,31,32,33,34,35,36,37,38,39,40,41,42,43,44,45,46,47,48,49,50,51,52,53,54,55,56,57,58,59,60,61,62,63,64,65,66,67,68,69,70,71,72,74,75,76,77,78,79,80,81,82,83,84,85,86,87,88,90,91,92,93,94,95,96,97,99,100,101,102,103,104,105,106,107,108,109,110,112,113,114,115,116,117,118,119,120,121,122,123,124,125,126,127,128,129,130,131,132,133,134,135,147,148,2,0,0,1,3,6,0,0,1,2,3,4,5,6,1,5,2,53,147,1,2,3,4,0,1,2,3,4,4,5,6,1,1,0,2,0,1,3,4,5,7,9,11,12,13,14,15,16,17,18,19,20,21,22,23,24,25,26,27,28,29,30,0,1,2,3,4,6,10,11,12,13,0,1,2,3,4,7,8,9,10,13,14,15,16,17,19,20,21,22,23,24,25,26,27,28,29,30,31,32,33,34,35,37,38,39,40,41,42,43,44,45,46,47,48,49,50,51,52,53,54,55,56,57,58,59,60,61,62,63,64,65,66,68,69,70,71,72,73,74,75,76,77,78,79,80,81,82,83,84,85,86,87,88,89,90,91,92,93,94,95,96,97,98,99,100,101,102,1,5,9,15,26,38,42,1,3,1,2,3,4,5,0,1,2,3,4,5],"categories_nodes":[0,1,2,3,4,5,6,7,8,9,10,13,14,15,16,17,18,19,20,21,22,23,24,25,26,28,29,30,31,32,33,34,36,37,38,39,40,41,42,45,46,50],"categories_segments":[0,3,140,287,382,465,469,470,472,489,649,650,654,655,656,660,672,806,807,808,812,813,820,821,822,823,825,829,834,837,838,839,840,841,868,878,974,981,983,988,989,990],"categories_sizes":[3,137,147,95,83,4,1,2,17,160,1,4,1,1,4,12,134,1,1,4,1,7,1,1,1,2,4,5,3,1,1,1,1,27,10,96,7,2,5,1,1,4],"default_left":[1,0,0,0,0,1,1,1,1,0,1,0,0,1,1,1,1,1,0,1,1,1,1,1,1,1,1,0,1,1,1,1,1,1,1,0,1,1,1,0,1,1,1,0,0,1,1,0,0,0,1,0,0,0,0,0,0,0,0,0,0,0,0,0,0,0,0,0,0,0,0,0,0,0,0,0,0,0,0,0,0,0,0,0,0],"id":8,"left_children":[1,3,5,7,9,11,13,15,17,19,21,-1,-1,23,25,27,29,31,33,35,37,39,41,43,45,47,49,-1,51,53,55,57,59,61,63,-1,65,67,69,71,73,75,77,-1,-1,79,81,-1,-1,-1,83,-1,-1,-1,-1,-1,-1,-1,-1,-1,-1,-1,-1,-1,-1,-1,-1,-1,-1,-1,-1,-1,-1,-1,-1,-1,-1,-1,-1,-1,-1,-1,-1,-1,-1],"loss_changes":[8.982747E0,7.990579E0,5.3912325E0,9.541603E0,7.884975E0,1.4565762E0,2.0885267E0,5.074108E0,2.6295202E0,4.167754E0,6.804186E0,0E0,0E0,1.5919752E0,2.866552E0,1.5071526E0,3.111236E0,3.5123122E0,4.415799E0,3.1747432E0,4.0185213E0,7.664403E0,4.8783417E0,1.2090142E0,9.7095585E-1,1.4114898E0,2.7798018E0,0E0,6.25171E0,6.2260747E-2,1.9282651E0,4.319146E0,4.481799E0,1.3966773E0,2.350717E0,0E0,1.6437947E0,4.1549907E0,5.584429E0,5.327565E0,7.424985E0,6.1923904E0,4.9975872E-2,0E0,0E0,3.0615902E-1,1.0854968E0,0E0,0E0,0E0,6.8823045E-1,0E0,0E0,0E0,0E0,0E0,0E0,0E0,0E0,0E0,0E0,0E0,0E0,0E0,0E0,0E0,0E0,0E0,0E0,0E0,0E0,0E0,0E0,0E0,0E0,0E0,0E0,0E0,0E0,0E0,0E0,0E0,0E0,0E0,0E0],"parents":[2147483647,0,0,1,1,2,2,3,3,4,4,5,5,6,6,7,7,8,8,9,9,10,10,13,13,14,14,15,15,16,16,17,17,18,18,19,19,20,20,21,21,22,22,23,23,24,24,25,25,26,26,28,28,29,29,30,30,31,31,32,32,33,33,34,34,36,36,37,37,38,38,39,39,40,40,41,41,42,42,45,45,46,46,50,50],"right_children":[2,4,6,8,10,12,14,16,18,20,22,-1,-1,24,26,28,30,32,34,36,38,40,42,44,46,48,50,-1,52,54,56,58,60,62,64,-1,66,68,70,72,74,76,78,-1,-1,80,82,-1,-1,-1,84,-1,-1,-1,-1,-1,-1,-1,-1,-1,-1,-1,-1,-1,-1,-1,-1,-1,-1,-1,-1,-1,-1,-1,-1,-1,-1,-1,-1,-1,-1,-1,-1,-1,-1],"split_conditions":[NaN,NaN,NaN,NaN,NaN,NaN,NaN,NaN,NaN,NaN,NaN,2.7927786E-1,-5.646804E-2,NaN,NaN,NaN,NaN,NaN,NaN,NaN,NaN,NaN,NaN,NaN,NaN,NaN,NaN,2.8621203E-1,NaN,NaN,NaN,NaN,NaN,NaN,NaN,2.8762075E-1,NaN,NaN,NaN,NaN,NaN,NaN,NaN,1.5251996E-1,-1.6884208E-1,NaN,NaN,2.4847156E-1,-9.287862E-2,-2.7147025E-1,NaN,2.6530963E-1,-1.4863884E-1,1.9801806E-1,4.620678E-2,7.488634E-2,-3.2942888E-1,1.1424779E-1,-3.4123767E-2,1.18091784E-1,-2.872798E-1,2.1390228E-1,-8.4264055E-2,-2.1439098E-1,4.8652127E-2,1.206437E-1,-2.2796245E-1,1.6305423E-1,3.878552E-2,1.1632787E-1,-2.0808313E-2,1.640872E-1,1.3278233E-2,-1.115647E-2,-1.3924192E-1,-3.390071E-2,-2.0326026E-1,8.313063E-2,2.8436974E-1,-3.7312916E-1,-1.028086E-1,7.753316E-2,-2.1339478E-1,3.134767E-2,-1.4107981E-1],"split_indices":[12,2,2,1,1,5,9,2,1,2,9,0,0,5,12,7,12,11,2,12,3,4,7,1,8,5,8,0,2,4,5,12,6,4,7,0,6,12,12,1,11,12,4,0,0,7,6,0,0,0,4,0,0,0,0,0,0,0,0,0,0,0,0,0,0,0,0,0,0,0,0,0,0,0,0,0,0,0,0,0,0,0,0,0,0],"split_type":[1,1,1,1,1,1,1,1,1,1,1,0,0,1,1,1,1,1,1,1,1,1,1,1,1,1,1,0,1,1,1,1,1,1,1,0,1,1,1,1,1,1,1,0,0,1,1,0,0,0,1,0,0,0,0,0,0,0,0,0,0,0,0,0,0,0,0,0,0,0,0,0,0,0,0,0,0,0,0,0,0,0,0,0,0],"sum_hessian":[1.115624E3,1.0786467E3,3.6977383E1,1.514595E2,9.271872E2,3.705446E0,3.3271935E1,4.1687042E1,1.0977247E2,3.2807574E2,5.9911145E2,2.3703115E0,1.3351345E0,1.4665708E1,1.8606228E1,3.563258E1,6.054462E0,8.924243E1,2.0530035E1,1.1790277E1,3.1628546E2,5.185814E2,8.053003E1,2.226935E0,1.2438773E1,3.0189857E0,1.5587241E1,2.215601E1,1.3476568E1,2.5908709E0,3.4635913E0,8.085627E1,8.386163E0,5.6224394E0,1.4907596E1,8.825396E0,2.9648817E0,1.2706308E2,1.8922238E2,8.810648E1,4.3047495E2,7.7734505E1,2.7955244E0,1.0496418E0,1.1772931E0,9.316863E0,3.1219096E0,1.954203E0,1.0647829E0,7.5871806E0,8.000061E0,9.459055E0,4.017513E0,1.452785E0,1.1380858E0,1.0895607E0,2.3740306E0,5.578499E1,2.5071283E1,3.4409711E0,4.9451914E0,4.3094287E0,1.3130107E0,1.1264402E1,3.6431928E0,1.6619133E0,1.3029683E0,3.1953989E1,9.510909E1,3.1120745E1,1.5810164E2,3.357128E1,5.4535202E1,3.859035E2,4.4571423E1,4.0579277E1,3.715523E1,1.328843E0,1.4666815E0,7.9378166E0,1.3790466E0,1.2507939E0,1.8711156E0,6.0030746E0,1.9969864E0],"tree_param":{"num_deleted":"0","num_feature":"13","num_nodes":"85","size_leaf_vector":"1"}},{"base_weights":[1.39324535E-2,3.6223233E-1,-4.1371477E-3,6.2577873E-1,3.770094E-2,3.9232746E-1,-2.0394713E-2,8.301621E-1,4.1353145E-1,3.6255473E-1,-4.2139566E-1,5.897093E-1,-2.0510192E-1,-5.58046E-3,-4.987134E-1,2.6388636E-1,2.6959108E-2,5.5896986E-1,-3.7325275E-1,2.8257042E-1,1.0581728E-1,1.15103506E-1,-6.065113E-1,7.1193206E-1,-1.0870084E-1,2.4121447E-1,-4.8552623E-1,5.059304E-3,-6.5252626E-1,4.1591182E-1,-6.243351E-1,8.3763236E-1,2.5666365E-1,-2.2861627E-1,4.7185216E-2,2.5163954E-1,-1.7132215E-1,1.4423376E-1,-8.4215444E-1,8.7105376E-1,3.8441056E-1,-2.6327106E-1,3.8090137E-1,-9.728124E-2,1.9957791E-1,-9.4673115E-1,2.0495097E-1,3.0074237E-2,-2.3335937E-1,1.9423872E-1,-8.6736506E-1,2.1985401E-1,-4.6623908E-2,5.763516E-2,-7.30684E-1,2.8207898E-1,3.6836896E-2,2.0052326E-1,-5.4763723E-2,4.0920116E-2,-2.2288115E-1,-4.1417565E-2,1.0623803E-1,9.3377024E-2,-3.29367E-1,3.1619427E-1,1.4223562E-1,1.7253157E-1,-4.9544025E-2,-7.3305E-2,2.2431801E-1,-1.0544639E-1,8.1463404E-2,1.4737407E-3,-4.4467545E-1,2.0534043E-1,-7.829608E-2,1.2809888E-1,4.728194E-3,1.8187487E-1,-1.0224793E-1,1.8389565E-1,-1.4546911E-1,-1.9895066E-2,-2.9041868E-1,1.664156E-1,-1.4528488E-1,8.9976035E-2,-2.3975804E-1],"categories":[0,1,2,3,4,5,6,7,12,14,15,18,20,21,22,23,24,25,26,27,28,29,30,0,4,7,9,10,11,12,13,14,15,16,17,18,19,20,21,22,23,24,25,26,27,28,29,30,31,32,33,34,35,37,38,39,40,41,42,43,44,45,46,47,48,49,50,51,52,53,54,55,56,58,59,60,61,62,63,64,65,66,68,69,70,71,72,73,74,75,76,77,78,79,80,81,82,83,84,85,86,87,88,89,90,91,92,93,94,95,96,97,98,99,100,101,102,0,1,2,3,4,5,6,7,8,9,10,11,12,13,14,15,17,18,19,21,22,23,24,25,27,28,29,31,32,33,34,35,36,37,38,39,40,41,42,44,45,46,47,49,50,51,53,54,55,56,57,58,59,60,61,62,63,64,65,66,67,68,69,70,71,72,73,74,75,76,77,78,79,80,81,82,83,84,85,86,87,88,89,90,91,92,95,96,97,98,99,100,101,102,103,104,105,106,107,108,109,111,112,113,115,117,119,120,121,124,125,127,128,129,130,131,132,133,134,135,137,138,139,140,141,142,143,144,145,146,147,148,149,150,151,152,153,154,155,156,157,158,159,160,161,162,163,164,165,0,4,5,8,11,1,2,0,15,1,2,3,4,5,6,7,8,9,10,11,12,13,14,15,0,1,2,3,4,5,6,7,12,13,14,15,16,2,0,1,2,3,4,5,6,7,8,9,10,11,12,13,14,15,16,17,18,19,20,21,22,23,24,25,26,27,28,29,30,31,32,33,34,35,36,37,38,39,40,41,42,43,44,45,46,47,48,49,50,51,52,53,54,56,57,58,59,60,61,62,63,64,65,66,67,68,69,70,71,72,73,74,75,76,77,78,79,80,81,82,83,84,85,86,87,88,89,90,91,92,93,94,95,96,97,98,99,100,101,102,103,104,105,106,107,108,109,110,111,112,113,114,115,3,0,1,2,3,4,5,6,7,8,9,10,11,12,13,14,15,17,18,19,20,21,22,23,24,25,26,27,28,29,30,31,32,33,34,35,36,37,38,39,40,41,42,44,45,46,47,48,49,50,51,52,53,54,55,56,57,58,59,60,61,62,63,64,65,66,67,68,69,70,71,72,73,74,75,76,77,78,79,80,81,82,83,84,85,86,87,88,89,90,91,92,93,94,95,96,97,98,99,100,101,102,103,104,105,106,107,108,109,110,111,112,113,114,115,116,117,118,119,120,121,122,123,124,125,126,127,128,129,130,131,132,133,134,135,19,26,29,31,32,86,92,0,1,2,3,4,5,6,7,8,9,10,11,12,13,14,15,16,17,18,19,20,21,22,23,24,25,26,27,28,29,30,31,32,33,34,35,36,37,38,39,40,41,42,43,44,45,46,47,48,49,50,51,52,53,55,56,57,58,59,60,61,62,63,64,65,66,67,68,69,70,71,72,73,74,75,76,77,78,79,80,81,82,83,84,85,86,87,88,89,90,91,92,93,94,95,96,97,98,99,100,101,102,103,104,105,106,107,108,109,110,111,112,113,114,116,117,118,119,120,121,122,123,124,125,126,127,128,129,130,131,132,133,134,135,136,137,138,139,140,141,142,143,144,145,146,147,148,0,1,4,5,6,7,8,9,10,11,12,13,14,15,16,17,18,19,20,21,22,23,24,25,26,27,28,29,30,31,32,33,34,35,36,37,38,39,40,41,42,43,44,45,46,47,48,49,50,51,52,53,54,55,56,57,58,59,60,61,62,63,64,65,66,67,68,69,70,71,72,73,74,75,76,77,78,79,80,81,82,83,84,85,86,87,88,89,90,91,92,93,94,95,96,97,98,99,100,101,102,0,2,0,1,6,2,0,1,2,3,4,5,6,7,8,9,10,11,12,13,14,15,16,17,18,19,20,21,22,23,24,25,26,27,28,29,30,0,1,2,3,4,5,6,7,8,9,10,11,12,13,14,15,16,17,18,0,1,2,3,4,5,6,7,8,9,10,11,12,13,14,1,3,4,5,8,9,10,11,13,14,16,17,18,19,20,21,22,23,24,26,31,42,46,50,54,0,1,2,4,5,0,1,2,3,0,1,2,3,5,6,7,8,9,10,11,12,13,14,15,16,17,18,19,20,21,22,23,24,25,26,27,28,29,30,31,32,33,34,35,36,37,38,39,40,41,42,43,44,45,46,48,49,50,51,52,53,54,55,56,57,58,59,60,61,62,63,64,65,66,67,68,69,70,71,72,73,74,75,76,77,78,79,80,81,82,83,84,85,86,87,88,89,90,91,92,93,94,95,96,97,98,99,100,101,102,1,2,3,4,5,6,7,8,9,10,11,12,13,14,15,16,17,18,19,20,21,22,23,24,25,26,4,5,2,3,4,5,6,0,1,1,0,4,0,1,0,0,1,2,3,4,5,6,7,8,9,0,1,3,4,5,8,9,10,11,13,14,15,16,17,18,19,20,21,22,23,24,25,26,27,28,30,31,32,33,34,35,36,37,39,40,41,42,43,44,45,46,48,49,50,51,52,53,54,55,56,57,58,59,60,61,62,63,0,1,2,3,4,5,6,8,9,10,12,13,14,15,16,17,19,20,21,22,23,24,25,26,27,28,29,30,31,32,33,34,35,36,37,38,39,40,41,42,43,44,45,46,48,49,50,51,52,53,54,55,56,4,0,1,4,5,1,2,3,0,1,2,4,5,6],"categories_nodes":[0,1,2,3,4,5,6,7,8,9,10,11,12,13,14,17,18,20,22,23,24,25,26,27,28,29,30,31,32,36,37,38,39,40,42,43,45,46,47,48,49,50,53,54],"categories_segments":[0,23,117,266,269,271,273,275,290,303,304,419,420,554,561,708,809,810,811,814,815,846,865,880,905,910,914,1015,1041,1043,1048,1049,1050,1051,1053,1054,1055,1056,1066,1123,1176,1177,1181,1184],"categories_sizes":[23,94,149,3,2,2,2,15,13,1,115,1,134,7,147,101,1,1,3,1,31,19,15,25,5,4,101,26,2,5,1,1,1,2,1,1,1,10,57,53,1,4,3,6],"default_left":[1,0,0,1,1,1,1,1,1,1,0,1,0,1,0,0,0,0,1,0,1,0,1,1,1,1,1,1,1,1,0,1,1,0,0,0,1,1,1,1,1,0,1,1,0,1,1,1,1,1,1,0,0,1,1,0,0,0,0,0,0,0,0,0,0,0,0,0,0,0,0,0,0,0,0,0,0,0,0,0,0,0,0,0,0,0,0,0,0],"id":9,"left_children":[1,3,5,7,9,11,13,15,17,19,21,23,25,27,29,-1,-1,31,33,-1,35,-1,37,39,41,43,45,47,49,51,53,55,57,-1,-1,-1,59,61,63,65,67,-1,69,71,-1,73,75,77,79,81,83,-1,-1,85,87,-1,-1,-1,-1,-1,-1,-1,-1,-1,-1,-1,-1,-1,-1,-1,-1,-1,-1,-1,-1,-1,-1,-1,-1,-1,-1,-1,-1,-1,-1,-1,-1,-1,-1],"loss_changes":[6.9262915E0,4.6187625E0,6.7565317E0,9.5329475E-1,3.939242E0,4.9901843E0,7.130727E0,4.4213104E-1,2.1144621E0,2.191772E0,1.8695341E0,2.7488432E0,1.4933963E0,6.731657E0,3.7331662E0,0E0,0E0,1.0028982E0,7.795259E-1,0E0,2.5410588E0,0E0,1.7697682E0,1.0601482E0,2.4154706E0,7.696586E-1,2.450309E0,5.748344E0,3.0470386E0,8.836297E-1,1.9989223E0,4.0403843E-1,1.6367881E0,0E0,0E0,0E0,1.7537441E0,2.3136172E-1,2.476603E0,7.509918E-1,1.199773E0,0E0,1.1173599E0,4.333035E-1,0E0,2.262763E0,9.962336E-1,4.9481916E0,8.465013E0,1.4402517E0,9.68626E-1,0E0,0E0,1.4988161E0,1.8928509E0,0E0,0E0,0E0,0E0,0E0,0E0,0E0,0E0,0E0,0E0,0E0,0E0,0E0,0E0,0E0,0E0,0E0,0E0,0E0,0E0,0E0,0E0,0E0,0E0,0E0,0E0,0E0,0E0,0E0,0E0,0E0,0E0,0E0,0E0],"parents":[2147483647,0,0,1,1,2,2,3,3,4,4,5,5,6,6,7,7,8,8,9,9,10,10,11,11,12,12,13,13,14,14,17,17,18,18,20,20,22,22,23,23,24,24,25,25,26,26,27,27,28,28,29,29,30,30,31,31,32,32,36,36,37,37,38,38,39,39,40,40,42,42,43,43,45,45,46,46,47,47,48,48,49,49,50,50,53,53,54,54],"right_children":[2,4,6,8,10,12,14,16,18,20,22,24,26,28,30,-1,-1,32,34,-1,36,-1,38,40,42,44,46,48,50,52,54,56,58,-1,-1,-1,60,62,64,66,68,-1,70,72,-1,74,76,78,80,82,84,-1,-1,86,88,-1,-1,-1,-1,-1,-1,-1,-1,-1,-1,-1,-1,-1,-1,-1,-1,-1,-1,-1,-1,-1,-1,-1,-1,-1,-1,-1,-1,-1,-1,-1,-1,-1,-1],"split_conditions":[NaN,NaN,NaN,NaN,NaN,NaN,NaN,NaN,NaN,NaN,NaN,NaN,NaN,NaN,NaN,2.6388636E-1,